tree
version=v4
num_class=1
num_tree_per_iteration=1
label_index=0
max_feature_idx=121
objective=regression
feature_names=auction_price_ch_de auction_price_de_ch dst day_ahead_price_at day_ahead_price_de day_ahead_price_fr day_ahead_price_it actual_load_at actual_load_ch actual_load_de actual_load_fr actual_load_it allocated_capacity_ch_de allocated_capacity_de_ch biomass_actual_aggregated_at biomass_actual_aggregated_de biomass_actual_aggregated_fr biomass_actual_aggregated_it capacity_forecast_at_ch capacity_forecast_ch_at capacity_forecast_ch_de_lu capacity_forecast_ch_fr capacity_forecast_ch_it capacity_forecast_de_lu_ch capacity_forecast_fr_ch capacity_forecast_it_ch crossborder_actual_flow_at_ch crossborder_actual_flow_ch_at crossborder_actual_flow_ch_de_lu crossborder_actual_flow_ch_fr crossborder_actual_flow_ch_it crossborder_actual_flow_de_lu_ch crossborder_actual_flow_fr_ch crossborder_actual_flow_it_ch fossil_brown_coal_lignite_actual_aggregated_de fossil_coal_derived_gas_actual_aggregated_it fossil_gas_actual_aggregated_at fossil_gas_actual_aggregated_de fossil_gas_actual_aggregated_fr fossil_gas_actual_aggregated_it fossil_hard_coal_actual_aggregated_de fossil_hard_coal_actual_aggregated_fr fossil_hard_coal_actual_aggregated_it fossil_oil_actual_aggregated_de fossil_oil_actual_aggregated_fr fossil_oil_actual_aggregated_it geothermal_actual_aggregated_de geothermal_actual_aggregated_it hydro_pumped_storage_actual_aggregated_at hydro_pumped_storage_actual_aggregated_de hydro_pumped_storage_actual_aggregated_fr hydro_pumped_storage_actual_aggregated_it hydro_pumped_storage_actual_consumption_at hydro_pumped_storage_actual_consumption_de hydro_pumped_storage_actual_consumption_fr hydro_pumped_storage_actual_consumption_it hydro_pumped_storage_ch hydro_reservoir_storage_at hydro_reservoir_storage_ch hydro_reservoir_storage_fr hydro_reservoir_storage_it hydro_run_of_river_and_poundage_actual_aggregated_at hydro_run_of_river_and_poundage_actual_aggregated_de hydro_run_of_river_and_poundage_actual_aggregated_fr hydro_run_of_river_and_poundage_actual_aggregated_it hydro_run_of_river_and_poundage_ch hydro_water_reservoir_actual_aggregated_at hydro_water_reservoir_actual_aggregated_de hydro_water_reservoir_actual_aggregated_fr hydro_water_reservoir_actual_aggregated_it hydro_water_reservoir_ch nuclear_actual_aggregated_de nuclear_actual_aggregated_fr nuclear_ch other_actual_aggregated_de other_actual_aggregated_it other_renewable_actual_aggregated_de solar_actual_aggregated_at solar_actual_aggregated_de solar_actual_aggregated_fr solar_actual_aggregated_it solar_ch solar_forecast_at solar_forecast_ch solar_forecast_de solar_forecast_fr solar_forecast_it waste_actual_aggregated_de waste_actual_aggregated_fr waste_actual_aggregated_it wind_offshore_actual_aggregated_de wind_offshore_actual_aggregated_fr wind_offshore_actual_aggregated_it wind_offshore_forecast_de wind_onshore_actual_aggregated_at wind_onshore_actual_aggregated_de wind_onshore_actual_aggregated_fr wind_onshore_actual_aggregated_it wind_onshore_ch wind_onshore_forecast_at wind_onshore_forecast_de wind_onshore_forecast_fr weekend work_hour year hour_counter hour_sin hour_cos week_hour_sin week_hour_cos month_sin month_cos quarter_sin quarter_cos wday_sin wday_cos holiday_name_Auffahrt holiday_name_Nationalfeiertag holiday_name_Neujahrestag holiday_name_Weihnachten holiday_name_none trend
feature_infos=[0:201] [0:153.75] [0:1] [-500:437.47000000000003] [-500:524.26999999999998] [-134.94:276.12] [3.0899999999999999:295] [4013.75:10159.5] [3747:10013] [31284.5:74376.75] [28744:81747] [16499:52503] [1632:4493] [293:2699] [52:310] [3634:5190.25] [249:553] [151:769] [0:1200] [0:1200] [2100:4000] [0:1200] [0:4997] [800:2200] [2227:3700] [1440:1910] [0:2198] [0:1498] [0:4555] [0:3701] [0:5243] [0:4616] [0:4964] [0:2181] [2636.75:16450.75] [0:896] [0:3595.5] [1527.75:16561.75] [0:9542] [2130:25541] [727.75:15240.5] [0:1741] [101:4053] [194.75:958] [91:1489] [0:787] [5:32] [469:644] [0:3106.75] [0:9163] [0:4472] [0:4744] [0:2024.75] [0:8420.5] [0:3679] [1:3524] [0:4031] [450518:1955406] [1511014:5126668] [1343353:3013784] [1841496:3802050] [1395.75:6223.5] [976.5:2119.25] [8:8033] [914:8481] [58:490] [24.25:1416] [3.75:469.25] [0:6157] [8:1784] [32:4131] [0:3082.25] [21593:48256] [310:3034] [125:349] [737:3455] [63:175] [0:2007] [0:40857.25] [0:12934] [0:13374] [0:2875] [0:1978] [0:174] [0:41518.5] [0:12857] [0:13417] [319:1005] [36:185] [18:407] [0:7633.25] [0:698] [0:30] [35.75:6483.25] [4:3382] [145.5:48205.75] [10:16870] [73:8768] [0:69] [20:3434] [207:46769.25] [379:20156] [0:1] [0:1] none [0:8757] [-1:1] [-1:1] [-1:1] [-1:1] [-1:1] [-1:1] [-1:1] [-1:1] [-0.97492791218182362:0.97492791218182362] [-0.90096886790241903:1] [0:1] [0:1] [0:1] [0:1] [0:1] [0:8757]
tree_sizes=2691 2731 2724 2727 2722 2735 2746 2730 2760 2730 2742 2735 2749 2759 2724 2751 2759 2752 2763 2760 2768 2763 2768 2752 2781 2778 2763 2778 2768 2760 2770 2785 2786 2766 2773

Tree=0
num_leaves=31
num_cat=0
split_feature=3 22 105 105 3 102 5 64 5 86 102 24 5 58 14 24 62 101 38 42 108 105 83 22 31 58 28 28 64 101
split_gain=5.6381e+06 1.60998e+06 1.12874e+06 586360 376274 270834 258809 246168 229757 152017 114536 85671.5 83033.1 75632.7 73970.6 71891.2 61788.5 61692.5 49432.9 45624 43082 42264.5 40865.5 38646.6 47665.8 47065.1 34839.6 34773 34483.7 33280.2
threshold=112.00500000000001 1684.5000000000002 1575.5000000000002 2835.5000000000005 82.950000000000003 1.0000000180025095e-35 129.48000000000005 2016.5000000000002 63.155000000000008 2606.4428472462769 1.0000000180025095e-35 3109.0000000000005 175.62500000000003 2204075.5565476199 96.500000000000014 3661.0000000000005 1242.2500000000002 7545.5000000000009 2476.5000000000005 351.50000000000006 -0.97042686923544585 6717.5000000000009 91.500000000000014 3130.5000000000005 715.50000000000011 4331013.8809523815 2732.5000000000005 991.50000000000011 1437.5000000000002 6061.0000000000009
decision_type=2 2 2 2 2 2 2 2 2 2 2 2 2 2 2 2 2 2 2 2 2 2 2 2 2 2 2 2 2 2
left_child=1 8 7 13 5 16 20 28 14 17 21 -9 -8 -3 -1 18 -5 -7 -10 -16 -4 27 -12 24 -18 -25 -14 -6 -2 -26
right_child=2 3 6 4 10 9 12 11 15 -11 22 -13 26 -15 19 -17 23 -19 -20 -21 -22 -23 -24 25 29 -27 -28 -29 -30 -31
leaf_value=94.667147102786117 110.70729959898742 107.73235404833883 106.36084307082963 108.00851301522452 106.06472863043649 105.02790565544616 110.3268390459255 117.21525175437891 102.37032880976429 99.667519162696365 105.48785843202171 113.86287797991277 112.48876761866447 109.71033636748999 102.17128577315555 97.555137945775911 105.17011941967202 101.52342548366857 105.76016303366892 98.664985564233049 108.52012325788313 107.61490487856736 102.81800508313989 104.62909805485083 104.25708049903737 106.84208604496597 117.27675103956079 107.18156339806647 112.17190910807967 102.09200357361654
leaf_weight=41 267 610 100 67 770 135 681 88 152 162 637 570 55 283 44 24 409 80 60 237 1216 439 63 200 215 185 21 437 404 106
leaf_count=41 267 610 100 67 770 135 681 88 152 162 637 570 55 283 44 24 409 80 60 237 1216 439 63 200 215 185 21 437 404 106
internal_value=107.478 105.456 110.662 106.047 105.519 104.315 109.203 112.937 100.372 101.981 106.319 114.311 110.677 108.359 98.6351 102.742 105.059 103.724 103.33 99.214 108.356 106.775 105.248 104.882 104.454 105.692 113.812 106.469 111.589 103.542
internal_weight=0 5356 3402 4798 3905 1559 2073 1329 558 377 2346 658 757 893 322 236 1182 215 212 281 1316 1646 700 1115 730 385 76 1207 671 321
internal_count=8758 5356 3402 4798 3905 1559 2073 1329 558 377 2346 658 757 893 322 236 1182 215 212 281 1316 1646 700 1115 730 385 76 1207 671 321
is_linear=0
shrinkage=1


Tree=1
num_leaves=31
num_cat=0
split_feature=3 22 105 105 3 102 5 64 5 86 102 24 31 58 114 30 3 31 62 64 101 40 60 31 31 22 101 58 101 76
split_gain=4.56686e+06 1.30408e+06 914276 474951 305054 217246 215356 205103 191846 127077 93024.8 71895.7 70091.3 61262.5 57999.5 56377.3 55875.4 51482.5 49751.7 49142.2 48910.3 47861.3 40454.9 36105 34168.7 37534.2 37045 35858 34134.7 34010.1
threshold=112.00500000000001 1684.5000000000002 1575.5000000000002 2835.5000000000005 83.135000000000005 1.0000000180025095e-35 137.87000000000003 2368.0000000000005 75.135000000000005 2606.4428472462769 1.0000000180025095e-35 3661.0000000000005 1088.5000000000002 2204075.5565476199 1.0000000180025095e-35 557.00000000000011 126.09000000000002 256.50000000000006 1242.2500000000002 1585.0000000000002 7545.5000000000009 1279.6250000000002 3654834.8363095243 448.50000000000006 237.50000000000003 3130.5000000000005 6201.5000000000009 4331013.8809523815 13001.500000000002 132.62500000000003
decision_type=2 2 2 2 2 2 2 2 2 2 2 2 2 2 2 2 2 2 2 2 2 2 2 2 2 2 2 2 2 2
left_child=1 8 7 13 5 18 16 19 12 20 29 -10 14 -3 -1 -8 -4 -9 -5 -2 -7 -14 28 -24 -20 26 -26 -27 -12 -6
right_child=2 3 6 4 10 9 15 17 11 -11 22 -13 21 -15 -16 -17 -18 -19 24 -21 -22 -23 23 -25 25 27 -28 -29 -30 -31
leaf_value=-7.7068044247165801 3.1037042005685462 0.22860560141324418 0.46531994848982577 0.47714863868791668 -0.76920050795339767 -2.2091189496006285 6.2106667757034302 9.1362547614357705 -3.0753282548612861 -7.0212183882122394 -1.3896218822496873 -8.930888859430949 -13.538367184725676 2.0087896942848822 -4.0897456601046134 3.0129395244708612 1.6473340566182193 6.1338234494317261 -1.3205811383575201 4.6446893443409198 -5.2964961910321398 -8.5500477684868716 -1.9452382631497842 -5.1238757269723081 -2.5779958364072737 -2.7901502824772551 -4.3623998259940349 -0.73448631406927412 -4.3889820252976772 0.77488940395886385
leaf_weight=124 371 610 873 67 1468 140 64 66 166 163 509 24 22 283 69 398 738 424 260 468 81 153 73 70 364 177 171 163 41 158
leaf_count=124 371 610 873 67 1468 140 64 66 166 163 509 24 22 283 69 398 738 424 260 468 81 153 73 70 364 177 171 163 41 158
internal_value=0 -1.81992 2.86523 -1.28779 -1.76358 -2.83233 1.55262 4.91266 -6.39549 -4.903 -1.03264 -3.81498 -7.72782 0.792762 -6.41366 3.45591 1.0068 6.53823 -2.17082 3.96328 -3.34069 -9.17715 -2.0028 -3.50121 -2.32713 -2.62622 -3.14834 -1.80464 -1.61321 -0.61916
internal_weight=0 5356 3402 4798 3905 1586 2073 1329 558 384 2319 190 368 893 193 462 1611 490 1202 839 221 175 693 143 1135 875 535 340 550 1626
internal_count=8758 5356 3402 4798 3905 1586 2073 1329 558 384 2319 190 368 893 193 462 1611 490 1202 839 221 175 693 143 1135 875 535 340 550 1626
is_linear=0
shrinkage=0.1


Tree=2
num_leaves=31
num_cat=0
split_feature=3 22 105 105 3 5 64 5 102 86 5 102 31 101 40 15 24 42 108 101 64 114 109 7 35 83 46 84 108 108
split_gain=3.71037e+06 1.02071e+06 825339 348946 214592 205728 170778 169456 165685 98861.1 69265 63302.3 61954.6 61090.2 49181.1 48104.6 45141.2 44676.1 43861 42340.3 42011.4 36268.1 33917.7 32800.9 31600.4 31381 29524.6 29131.5 29063.1 28977.3
threshold=109.45 1740.0000000000002 1575.5000000000002 2835.5000000000005 82.950000000000003 126.47000000000001 2348.5000000000005 74.090000000000018 1.0000000180025095e-35 2606.4428472462769 164.82500000000002 1.0000000180025095e-35 498.50000000000006 8495.0000000000018 1289.3750000000002 4560.8750000000009 3109.0000000000005 407.50000000000006 -0.34781004316078107 7545.5000000000009 1585.0000000000002 1.0000000180025095e-35 0.69363975947873346 9346.0000000000018 480.50000000000006 94.500000000000014 26.875000000000004 16764.750000000004 0.20421627055961453 -0.25881904510252046
decision_type=2 2 2 2 2 2 2 2 2 2 2 2 2 2 2 2 2 2 2 2 2 2 2 2 2 2 2 2 2 2
left_child=1 7 6 15 8 18 20 12 17 19 29 22 21 27 -14 -3 -8 24 -4 -10 -2 -1 -6 -12 -5 -13 -21 -9 -17 -7
right_child=2 3 5 4 11 10 16 13 9 -11 23 25 14 -15 -16 28 -18 -19 -20 26 -22 -23 -24 -25 -26 -27 -28 -29 -30 -31
leaf_value=-6.2030181814323777 2.7683781365266977 0.18123616579142834 -0.17642126059060886 1.0247808843793713 -0.81710616965697325 1.2790917148620444 8.1759193897247311 -1.0090745849152134 -1.909878652413985 -6.3214353007155584 3.9284192898694208 -1.6377669043006264 -11.193255397251676 -6.7840372516995391 -7.1648697177920724 0.78484997237805565 5.4700278966854787 -2.2789095782178821 0.97155866703785509 -6.1851544746985807 4.1757466064986364 -2.6595976053282273 0.58228103360488792 8.2683776128859758 -1.4660439046627698 -4.4980662880874265 -1.7425024634315855 -3.6050090956238083 3.0043768092098402 2.5651488347199258
leaf_weight=88 390 556 547 70 1336 270 72 73 133 154 102 595 35 42 226 119 429 920 850 52 465 43 199 21 187 41 21 106 117 499
leaf_count=88 390 556 547 70 1336 270 72 73 133 154 102 595 35 42 226 119 429 920 850 52 465 43 199 21 187 41 21 106 117 499
internal_value=0 -1.73787 2.43778 -1.21639 -1.62336 1.27961 4.39284 -5.56603 -2.52749 -4.40482 2.46603 -0.983267 -6.81442 -3.35169 -7.70507 0.688986 5.8589 -1.95328 0.522063 -2.97201 3.53379 -5.03991 -0.635687 4.66939 -0.787609 -1.82216 -4.90713 -2.54633 1.88521 2.11361
internal_weight=0 5113 3645 4500 3708 2289 1356 613 1537 360 892 2171 392 221 261 792 501 1177 1397 206 855 131 1535 123 257 636 73 179 236 769
internal_count=8758 5113 3645 4500 3708 2289 1356 613 1537 360 892 2171 392 221 261 792 501 1177 1397 206 855 131 1535 123 257 636 73 179 236 769
is_linear=0
shrinkage=0.1


Tree=3
num_leaves=31
num_cat=0
split_feature=6 22 5 5 15 102 5 105 5 84 76 22 22 6 31 108 100 22 100 91 31 114 6 60 73 22 28 40 35 108
split_gain=3.00661e+06 699881 682278 290314 219514 183397 155137 142698 101355 98698.4 81176.8 76518.3 75291.5 59560.6 51873.3 51263.6 46940.5 46346.9 45918.6 48723.1 45274.2 45076.1 34159 32842.5 32542.8 32339.3 38218 31859.5 30449.1 30216.2
threshold=128.13500000000002 1684.5000000000002 146.38500000000002 86.385000000000019 4641.2500000000009 1.0000000180025095e-35 72.920000000000016 8519.5000000000018 173.69500000000002 15312.250000000002 102.12500000000001 3920.5000000000005 3075.5000000000005 127.77500000000002 763.50000000000011 -0.41688788171864971 10416.750000000002 1773.0000000000002 16306.750000000002 299.50000000000006 704.50000000000011 1.0000000180025095e-35 99.910000000000011 3327789.4464285718 916.00000000000011 3673.0000000000005 457.50000000000006 1265.6250000000002 758.50000000000011 -0.45057618369530988
decision_type=2 2 2 2 2 2 2 2 2 2 2 2 2 2 2 2 2 2 2 2 2 2 2 2 2 2 2 2 2 2
left_child=1 6 4 5 7 10 14 12 -4 18 20 -6 16 29 21 -5 -2 -18 -7 -20 -3 -1 -11 -19 -22 -10 -27 -16 -12 -8
right_child=2 3 8 15 11 9 13 -9 25 22 28 -13 -14 -15 27 -17 17 23 19 -21 24 -23 -24 -25 -26 26 -28 -29 -30 -31
leaf_value=-6.1570832838403424 0.97117460708334069 -1.3956809724292545 3.5320445112248557 -1.0114402960715771 2.0241073459372361 -1.8364222726386612 -3.3697621095426307 -4.2524731482778284 4.1159138740192764 -7.1376163125038152 -0.94779173487767499 4.1592458548794786 1.5721077860090311 -7.4094602508544929 -11.209038848876954 -0.0089660921774596114 -4.9595886105582832 0.45320885326160348 -2.548513229580613 -5.7741407978681876 -5.2999929827313093 -2.3368101197740305 -4.1460979161197198 -1.2038467130423842 -2.4199750123537211 5.3806343918637296 7.9687772303451725 -6.9934339652860791 0.70060692152939741 -0.726099844238697
leaf_weight=94 535 640 680 817 515 241 97 56 110 80 374 249 848 25 20 1358 21 320 111 81 43 46 73 191 448 193 81 173 160 78
leaf_count=94 535 640 680 817 515 241 97 56 110 80 374 249 848 25 20 1358 21 320 111 81 43 46 73 191 448 193 81 173 160 78
internal_value=0 -1.62171 2.11689 -1.20945 1.28102 -2.00555 -5.04511 0.723251 4.26548 -3.52704 -1.47007 2.71998 0.868755 -2.8437 -6.36728 -0.385528 0.309765 -0.355375 -2.75558 -3.90932 -1.94985 -4.90185 -5.71029 -0.16616 -2.6722 5.56428 6.14574 -7.43028 -0.45389 -2.19144
internal_weight=0 4959 3799 4426 2735 2251 533 1971 1064 586 1665 764 1915 200 333 2175 1067 532 433 192 1131 140 153 511 491 384 274 193 534 175
internal_count=8758 4959 3799 4426 2735 2251 533 1971 1064 586 1665 764 1915 200 333 2175 1067 532 433 192 1131 140 153 511 491 384 274 193 534 175
is_linear=0
shrinkage=0.1


Tree=4
num_leaves=31
num_cat=0
split_feature=3 22 105 62 3 5 31 31 102 60 102 13 6 7 83 47 22 35 38 22 102 29 100 5 18 108 34 58 28 32
split_gain=2.48295e+06 670036 557973 239751 185985 136688 132529 100414 91785.4 90501.9 69245.4 60947.5 49698.7 46466.7 44941.7 41749.9 39125 38648.9 42973.2 37363 36059.1 34075 32294.2 30483.5 29932.6 29004.5 27144.9 23517.3 22323.4 21966.1
threshold=109.03500000000001 1684.5000000000002 1575.5000000000002 1434.7500000000002 70.970000000000013 126.47000000000001 1498.0000000000002 715.50000000000011 1.0000000180025095e-35 3323610.0922619053 1.0000000180025095e-35 627.50000000000011 162.50000000000003 9555.5000000000018 47.500000000000007 589.50000000000011 2967.5000000000005 665.50000000000011 2100.5000000000005 3920.5000000000005 1.0000000180025095e-35 4.5000000000000009 15518.750000000002 93.285000000000011 625.00000000000011 0.68017273777091958 3674.6250000000005 4742681.4196415385 575.48292794335964 658.50000000000011
decision_type=2 2 2 2 2 2 2 2 2 2 2 2 2 2 2 2 2 2 2 2 2 2 2 2 2 2 2 2 2 2
left_child=1 7 6 9 8 20 19 15 -5 16 23 -10 -8 21 24 -1 29 -9 -19 -2 -4 -7 -11 -6 -12 26 -17 -14 -21 -3
right_child=2 3 5 4 10 13 12 17 11 22 14 -13 27 -15 -16 25 -18 18 -20 28 -22 -23 -24 -25 -26 -27 -28 -29 -30 -31
leaf_value=-1.0665096212426821 3.953081669126238 1.6399255228755267 0.71830656407307314 -2.1380942414340098 -1.0066506030029816 1.253865080089374 2.3399516738851487 -8.048641235763963 -2.5379584836825897 -0.25343405641784722 -0.55793777597895811 -5.967702797535928 3.9968620969174382 6.6537262871151883 -3.3614735644597276 -6.4344997693907544 1.6971394220324605 -5.9217730024281678 -1.4014500478903453 5.515595822520071 -0.44245888533681133 2.5044233438563057 -2.0946810027850526 -0.14825347197974603 -2.0535307484016143 -1.3394319401944386 -3.7773187135798594 1.9581841190016041 7.8625866699218747 -0.079148842327450758
leaf_weight=60 126 92 1069 640 1138 426 523 74 89 220 227 124 437 21 156 53 307 170 24 154 357 446 168 650 326 34 140 65 55 387
leaf_count=60 126 92 1069 640 1138 426 523 74 89 220 227 124 437 21 156 53 307 170 24 154 357 446 168 650 326 34 140 65 55 387
internal_value=0 -1.43304 1.97836 -1.03074 -1.4617 1.03526 3.5865 -4.71229 -2.73652 0.19898 -1.0262 -4.53462 3.02215 2.00543 -1.86247 -3.41249 0.815858 -6.10424 -5.36256 5.31323 0.427708 1.89349 -1.05068 -0.694593 -1.43961 -4.03257 -4.50701 3.73289 6.13322 0.251028
internal_weight=0 5079 3679 4524 3350 2319 1360 555 853 1174 2497 213 1025 893 709 287 786 268 194 335 1426 872 388 1788 553 227 193 502 209 479
internal_count=8758 5079 3679 4524 3350 2319 1360 555 853 1174 2497 213 1025 893 709 287 786 268 194 335 1426 872 388 1788 553 227 193 502 209 479
is_linear=0
shrinkage=0.1


Tree=5
num_leaves=31
num_cat=0
split_feature=6 3 5 22 5 102 15 22 76 108 101 59 60 68 59 102 56 3 105 12 5 35 108 85 31 23 38 28 29 12
split_gain=2.02672e+06 547993 307488 286011 203139 142060 113025 79958.2 68157.9 57246.7 52134.8 51681.1 50313.5 49835.7 41964.8 37683.5 37324.3 36308.5 35456.4 34978.6 33386.7 31692.9 29705.7 29607.8 26898.2 26604.9 21899.2 21180.9 21177.8 20504.9
threshold=136.81500000000003 73.035000000000011 153.09500000000003 1998.5000000000002 97.114745820929727 1.0000000180025095e-35 4668.8750000000009 1740.0000000000002 102.62500000000001 0.11196447610330794 7703.0000000000009 2326164.485119048 3659399.833333334 3152.0000000000005 1894921.2410714289 1.0000000180025095e-35 649.50000000000011 33.190000000000005 8349.5000000000018 4250.5000000000009 115.56500000000001 633.50000000000011 -0.54767606728947926 10316.500000000002 113.50000000000001 1025.0000000000002 490.50000000000006 991.50000000000011 540.50000000000011 4187.5000000000009
decision_type=2 2 2 2 2 2 2 2 2 2 2 2 2 2 2 2 2 2 2 2 2 2 2 2 2 2 2 2 2 2
left_child=1 3 6 12 5 19 7 -2 9 17 23 -8 14 -4 -1 28 -10 -5 22 27 -6 -12 -9 -7 -16 29 -11 -3 -15 -24
right_child=2 4 13 8 20 10 11 18 16 26 21 -13 -14 15 24 -17 -18 -19 -20 -21 -22 -23 25 -25 -26 -27 -28 -29 -30 -31
leaf_value=-2.0163566284319936 -3.2353285556489775 -1.0375268233320776 3.1368977390274497 -5.0118510767356641 -0.02243588645353585 -1.6089773354861459 2.107284043097652 0.51694556835520966 0.018418991161576873 -0.48577760092350619 -4.9700031801597362 4.3030332858745863 -9.7175682067871101 4.1241414722664143 -2.8044699103302428 2.5564899576627291 -3.4930411924634663 -2.652256759808834 -2.3005193169911702 0.45606950036608257 0.88647978257485061 -2.3412827764776933 0.42248064083469217 -4.6105922644478943 -5.4234926157896641 2.1598576578715782 -2.0412881624490695 -0.14782217168133097 5.9483295661647153 1.7438049342792294
leaf_weight=51 44 1034 499 97 1360 538 611 446 224 119 97 130 21 104 45 65 35 199 30 260 575 87 256 35 305 371 378 361 164 217
leaf_count=51 44 1034 499 97 1360 538 611 446 224 119 97 130 21 104 45 65 35 199 30 260 575 87 256 35 305 371 378 361 164 217
internal_value=0 -1.08056 2.14161 -2.74679 -0.515564 -1.12785 1.49834 0.958252 -1.86454 -2.32454 -2.26259 2.4925 -4.94614 3.76914 -4.69626 4.71654 -0.456103 -3.4255 1.09804 -0.608815 0.247655 -3.72708 1.17707 -1.79232 -5.08676 1.52591 -1.66884 -0.807288 5.24044 1.02867
internal_weight=0 5821 2937 1474 4347 2412 2105 1364 1052 793 757 741 422 832 401 333 259 296 1320 1655 1935 184 1290 573 350 844 497 1395 268 473
internal_count=8758 5821 2937 1474 4347 2412 2105 1364 1052 793 757 741 422 832 401 333 259 296 1320 1655 1935 184 1290 573 350 844 497 1395 268 473
is_linear=0
shrinkage=0.1


Tree=6
num_leaves=31
num_cat=0
split_feature=3 22 105 6 3 102 31 4 31 34 22 30 108 109 13 76 105 22 40 22 12 12 101 108 86 35 29 102 101 32
split_gain=1.6528e+06 439003 431306 155856 104471 100819 92271 85308.1 57815.7 49346.1 47162.1 41572.2 39240.2 41788.4 34878.5 33619.4 33340.5 32723.2 31412.3 30356.8 27544.3 23782.5 23409.4 22612.2 22484.9 21501.1 21402.8 21369.4 21020.1 20348.2
threshold=104.98500000000001 1570.0000000000002 1610.5000000000002 115.98500000000001 128.60500000000005 1.0000000180025095e-35 1498.0000000000002 74.125000000000014 498.50000000000006 4067.6250000000005 3363.5000000000005 1080.0000000000002 0.16747693666954469 0.7579717231454528 627.50000000000011 159.12500000000003 2695.5000000000005 3920.5000000000005 1186.2500000000002 2905.5000000000005 4031.5000000000005 4270.5000000000009 2935.5000000000005 -0.97874719270755584 234.50000000000003 771.50000000000011 1.0000000180025095e-35 1.0000000180025095e-35 16481.000000000004 2597.0000000000005
decision_type=2 2 2 2 2 2 2 2 2 2 2 2 2 2 2 2 2 2 2 2 2 2 2 2 2 2 2 2 2 2
left_child=1 8 6 5 23 9 17 14 28 21 -8 15 19 -14 -7 -6 -11 -2 -10 29 -13 -3 27 -4 -9 -21 -22 -20 -1 -5
right_child=2 3 4 12 11 7 10 24 18 16 -12 20 13 -15 -16 -17 -18 -19 22 25 26 -23 -24 -25 -26 -27 -28 -29 -30 -31
leaf_value=-2.5058262380325926 3.1259868712233221 -1.8349801778182631 -1.1220555771452687 -0.78219175588306111 2.2532780476512699 -2.2695689931875322 1.5263914504309293 -1.1227610746638541 -8.8705164527893068 0.85678924334864337 2.9048032745437804 0.70174317510321371 0.13235157200318154 2.2386371206243836 -4.8284970770737061 5.9000484528080115 -0.8919220215538517 5.0636229215349466 -0.67949886064637788 -0.24061255686417377 1.2996624400227594 -5.295445324125744 -5.3856261549415168 0.30644547421373841 -2.4364922197527052 1.6671044050036252 2.8361724829151687 -4.3397921110021658 -5.9193910789489754 -2.6356677160494861
leaf_weight=184 149 366 120 334 137 82 388 326 20 117 689 484 438 120 152 31 1600 210 22 293 268 21 182 1447 217 74 137 58 20 72
leaf_count=184 149 366 120 334 137 82 388 326 20 117 689 484 438 120 152 31 1600 210 22 293 268 21 182 1447 217 74 137 58 20 72
internal_value=0 -1.27707 1.47775 -0.948709 0.715278 -1.36217 2.87102 -2.33562 -4.12286 -1.00268 2.40822 1.48355 -0.0537546 0.585316 -3.93178 2.92619 -0.772761 4.25942 -5.05054 -0.515076 1.21092 -2.02276 -4.75893 0.197052 -1.64777 0.14405 1.81942 -3.33321 -2.84049 -1.11089
internal_weight=0 4698 4060 4212 2624 2881 1436 777 486 2104 1077 1057 1331 558 234 168 1717 359 282 773 889 387 262 1567 543 367 405 80 204 406
internal_count=8758 4698 4060 4212 2624 2881 1436 777 486 2104 1077 1057 1331 558 234 168 1717 359 282 773 889 387 262 1567 543 367 405 80 204 406
is_linear=0
shrinkage=0.1


Tree=7
num_leaves=31
num_cat=0
split_feature=6 3 5 22 5 102 105 105 108 101 35 59 20 5 60 76 11 108 108 12 84 36 23 76 35 101 47 85 109 22
split_gain=1.35831e+06 376743 200033 182558 148959 100539 73013.8 49447.5 48635.6 44081.6 43169.5 39596.2 39522 37266.5 34377.9 32977.2 31361.5 29483.2 28974.1 27868.8 27592.4 24681.5 22568.1 21561.7 20619.8 20559.2 19548.5 19441.4 19260.2 18177.8
threshold=137.715 70.970000000000013 153.09500000000003 2038.5000000000002 97.114745820929727 1.0000000180025095e-35 1785.5000000000002 8451.5000000000018 0.16747693666954469 7703.0000000000009 542.50000000000011 2326164.485119048 3975.0000000000005 199.99500000000003 3659399.833333334 102.62500000000001 19985.000000000004 -0.33027906195516704 -0.34781004316078107 4250.5000000000009 21911.250000000004 865.12500000000011 925.00000000000011 125.12500000000001 362.50000000000006 5279.0000000000009 589.50000000000011 9783.0000000000018 0.66623007452452054 3920.5000000000005
decision_type=2 2 2 2 2 2 2 2 2 2 2 2 2 2 2 2 2 2 2 2 2 2 2 2 2 2 2 2 2 2
left_child=1 3 6 12 5 19 11 18 10 20 25 16 -1 29 26 -10 -2 -6 -8 28 24 -11 -20 -19 -7 27 -14 -5 -3 -4
right_child=2 4 13 8 17 9 7 -9 15 21 -12 -13 14 -15 -16 -17 -18 23 22 -21 -22 -23 -24 -25 -26 -27 -28 -29 -30 -31
leaf_value=-0.1116878232608239 -1.6503336385956833 -0.83768362856740441 2.3287466443914879 -1.6454627761528606 -0.25791109175895383 -2.1483607522889869 0.23647872721544064 -2.6966842341423036 -1.3473684095195753 -3.6659629003036245 -1.2557710115012179 3.3307322607483978 -1.8600773514455391 4.6895964038408087 -8.3307733917236337 0.54229694372364168 1.7716039557880785 0.23986052452364631 0.71204785294231554 0.41126675208949526 -3.0116215791827754 -0.45207994888935776 1.8158164635806793 1.1433730548738366 -0.73939240163173736 -4.4163120369718536 -4.3106042464252781 -4.4796285797567927 0.17564070237572915 3.343467000126839
leaf_weight=24 28 1240 372 84 774 147 441 40 453 163 179 172 36 124 20 116 616 814 373 276 95 28 368 391 354 99 340 34 221 336
leaf_count=24 28 1240 372 84 774 147 441 40 453 163 179 172 36 124 20 116 616 814 373 276 95 28 368 391 354 99 340 34 221 336
internal_value=0 -0.869468 1.78377 -2.3118 -0.425847 -0.935131 1.25035 0.761239 -1.55438 -1.87277 -2.40536 1.98282 -4.05206 3.09039 -4.29087 -0.962129 1.62282 0.22369 0.878258 -0.510306 -1.44909 -3.19482 1.26021 0.533033 -1.1528 -3.35365 -4.07598 -2.46209 -0.684402 2.81031
internal_weight=0 5888 2870 1385 4503 2524 2038 1222 965 787 396 816 420 832 396 569 644 1979 1182 1737 596 191 741 1205 501 217 376 118 1461 708
internal_count=8758 5888 2870 1385 4503 2524 2038 1222 965 787 396 816 420 832 396 569 644 1979 1182 1737 596 191 741 1205 501 217 376 118 1461 708
is_linear=0
shrinkage=0.1


Tree=8
num_leaves=31
num_cat=0
split_feature=6 22 5 5 22 102 5 100 32 83 105 22 62 76 105 102 31 93 108 91 108 111 22 73 23 76 39 114 35 1
split_gain=1.11326e+06 254079 253254 118428 85008.2 82785.4 56867.9 55925.7 53161.7 48399.8 46087.8 42886.2 37812.8 36570.1 31480.8 29853.3 29243.5 25482.6 23950.8 22970.7 22385.7 21685.7 21669.1 21492.5 21130.3 19531.5 18773 18650.8 18388.2 17282.9
threshold=127.92000000000002 1570.0000000000002 140.08000000000001 89.595000000000013 3182.5000000000005 1.0000000180025095e-35 169.75000000000003 23141.625000000004 841.50000000000011 66.500000000000014 1050.5000000000002 726.50000000000011 1471.8750000000002 103.12500000000001 8349.5000000000018 1.0000000180025095e-35 715.50000000000011 2001.6250000000002 -0.92371800225709011 299.50000000000006 -0.43388373911755812 1.0000000180025095e-35 1840.5000000000002 916.00000000000011 1375.0000000000002 111.87500000000001 10541.500000000002 0.6078576107927941 763.50000000000011 21.450000000000003
decision_type=2 2 2 2 2 2 2 2 2 2 2 2 2 2 2 2 2 2 2 2 2 2 2 2 2 2 2 2 2 2
left_child=1 7 4 5 8 13 20 11 21 17 -6 -1 22 16 -12 -13 -3 -7 -8 29 -4 -2 -10 -18 -20 -17 -11 -5 -15 -19
right_child=2 3 6 27 10 9 18 -9 12 26 14 15 -14 28 -16 25 23 19 24 -21 -22 -23 -24 -25 -26 -27 -28 -29 -30 -31
leaf_value=-4.2400263876030122 0.37742622227179917 -0.76338303998247337 1.2404224311167369 -0.35051862348581386 2.5242292404174806 -0.69651624425819947 1.2234176910349301 -4.8316082369048026 -2.336366486710471 -4.4805427713721411 1.1389790618489186 -0.045060075364179081 -1.6438628933075088 -0.53120063231337245 -1.6744108586084274 -3.0923393563277299 -3.8773012571556622 -2.1020283032208682 2.7834210044951053 -3.3682432383840735 2.2957774996764799 1.5459311339404254 0.1605663083306795 -1.5452036955756459 4.2427276252586159 -0.44648970899482565 -2.3354963342987878 0.36500828346634973 0.77446170549113569 -0.0035035231893953793
leaf_weight=97 392 747 309 1437 260 175 49 145 37 102 750 72 179 439 42 124 43 160 185 110 575 267 573 488 214 36 68 488 143 52
leaf_count=97 392 747 309 1437 260 175 49 145 37 102 750 72 179 439 42 124 43 160 185 110 575 267 573 488 214 36 68 488 143 52
internal_value=0 -0.994401 1.27829 -0.760059 0.684892 -1.21021 2.39203 -3.19543 0.187861 -2.16602 1.36902 -2.47432 -0.365897 -0.867462 0.989784 -1.73607 -1.16669 -1.66781 3.30988 -2.19569 1.92688 0.850857 0.00911301 -1.73406 3.56611 -2.49702 -3.62252 -0.169128 -0.210394 -1.5873
internal_weight=0 4926 3832 4452 2500 2527 1332 474 1448 667 1052 329 789 1860 792 232 1278 497 448 322 884 659 610 531 399 160 170 1925 582 212
internal_count=8758 4926 3832 4452 2500 2527 1332 474 1448 667 1052 329 789 1860 792 232 1278 497 448 322 884 659 610 531 399 160 170 1925 582 212
is_linear=0
shrinkage=0.1


Tree=9
num_leaves=31
num_cat=0
split_feature=5 22 105 6 6 100 22 22 28 40 10 10 89 108 35 59 4 25 114 93 23 22 108 29 101 102 108 58 14 31
split_gain=914165 295195 151718 141018 91132.4 74355.5 56447.4 54921.6 53027.7 46648 42371.3 36300.6 33608.3 31830.8 29127.1 28434.6 27307.2 26712.8 24644.9 30642.2 22390.8 31408.2 21728.2 20278.4 20228.5 20084.9 19715.2 18992.4 18365.3 17956.8
threshold=113.45500000000001 1959.5000000000002 2660.5000000000005 171.76000000000002 98.390000000000015 17754.625000000004 726.50000000000011 3673.0000000000005 981.50000000000011 4107.0000000000009 61400.000000000007 59083.500000000007 385.50000000000006 0.16747693666954469 480.50000000000006 2858259.4821428577 25.005000000000006 1690.7622473449812 0.6078576107927941 960.75000000000011 875.00000000000011 2905.5000000000005 -0.39989202431974102 4.5000000000000009 7975.5000000000009 1.0000000180025095e-35 0.66623007452452032 4241406.0565476203 159.98265399587822 740.50000000000011
decision_type=2 2 2 2 2 2 2 2 2 2 2 2 2 2 2 2 2 2 2 2 2 2 2 2 2 2 2 2 2 2
left_child=1 5 7 11 13 6 -1 23 9 12 -5 18 20 16 29 -11 -4 -7 -2 26 21 22 -6 -3 -19 27 -20 -12 -23 -8
right_child=3 2 4 10 8 17 14 -9 -10 15 25 -13 -14 -15 -16 -17 -18 24 19 -21 -22 28 -24 -25 -26 -27 -28 -29 -30 -31
leaf_value=-3.8924862881600859 0.46570430878811586 0.21073864852621926 -4.1501060946234345 1.7518496588193977 -3.2460287386232674 -7.2454506778717054 -1.8422623227174217 2.3600610276174279 0.2825634916375081 -0.40077958462288588 2.8944001176901035 1.6150560712020834 1.5079344541376287 -1.0080877057350233 -0.79136476236617015 1.0139961494469187 -1.8229670905850712 -1.9312415052318213 4.4305667018890382 0.80349539922371072 -0.61511921071118592 -1.335909699634561 -1.548354246893779 2.2351836668396436 -3.9315993752571998 1.8207441490430101 1.69896259624511 4.3318522121999177 -0.11475379342405562 -4.6774130165576935
leaf_weight=100 1046 591 58 394 111 20 74 179 825 415 228 646 55 595 328 216 386 66 45 239 776 318 235 54 216 91 64 154 201 32
leaf_count=100 1046 591 58 394 111 20 74 179 825 415 228 646 55 595 328 216 386 66 45 239 776 318 235 54 216 91 64 154 201 32
internal_value=0 -0.720141 -0.430135 1.44945 -0.674021 -2.45983 -1.7506 0.810312 -0.406294 -0.650517 2.51781 0.995391 -0.923616 -1.48622 -1.25708 0.0835177 -2.12696 -3.7139 0.708229 1.4372 -1.00511 -1.35498 -2.09298 0.380227 -3.46343 3.15585 2.82669 3.4739 -0.862976 -2.69816
internal_weight=0 5851 5015 2907 4191 836 534 824 3152 2327 867 2040 1696 1039 434 631 444 302 1394 348 1641 865 346 645 282 473 109 382 519 106
internal_count=8758 5851 5015 2907 4191 836 534 824 3152 2327 867 2040 1696 1039 434 631 444 302 1394 348 1641 865 346 645 282 473 109 382 519 106
is_linear=0
shrinkage=0.1


Tree=10
num_leaves=31
num_cat=0
split_feature=3 105 22 62 34 29 31 31 7 31 60 68 58 114 40 108 31 38 31 13 35 34 30 22 101 114 42 13 42 93
split_gain=745804 209868 200199 82376.6 66241.3 58904.7 57036.3 40636.3 38994.4 33361.8 30667.9 29123.8 27666.7 27325.2 29075.3 26730.5 26497.7 23684.7 21460.1 21440.3 20145.6 19803.3 19746.1 16794.8 15646.1 15602.9 15369.2 14977.9 14087.2 14017.8
threshold=103.10500000000002 1575.5000000000002 1570.0000000000002 1390.8750000000002 4429.2500000000009 387.50000000000006 726.50000000000011 1053.5000000000002 9141.1250000000018 498.50000000000006 3323610.0922619053 1538.5000000000002 4277228.1369047631 0.6078576107927941 4771.8750000000009 -0.97042686923544585 377.50000000000006 626.50000000000011 61.500000000000007 730.50000000000011 417.50000000000006 11018.000000000002 2444.5000000000005 4270.0000000000009 10249.500000000002 0.6078576107927941 406.50000000000006 612.50000000000011 422.50000000000006 947.12500000000011
decision_type=2 2 2 2 2 2 2 2 2 2 2 2 2 2 2 2 2 2 2 2 2 2 2 2 2 2 2 2 2 2
left_child=2 6 9 10 7 15 29 25 26 -1 22 23 -9 14 16 -3 24 -18 -12 28 -11 -21 -4 -8 -6 -5 -7 -19 -17 -2
right_child=1 5 3 4 13 8 11 12 -10 20 18 -13 -14 -15 -16 19 17 27 -20 21 -22 -23 -24 -25 -26 -27 -28 -29 -30 -31
leaf_value=-1.8435787933793937 4.8158555311315201 -0.97633889601037316 0.10171586715320989 -1.8097041148289437 -0.42460560788204715 2.2832284607525386 1.0940952303682805 -3.2948168080134934 3.9792042803257068 -5.6487979607704366 1.0519392043352127 2.2591304265312337 -0.62521093363563229 -0.098286820317020684 0.14405387458561161 1.511832248710375 -3.2289500698676479 -0.38232326481190526 -1.0240023635843174 -0.41153837304470264 -3.1982991686525448 0.37979977223928196 1.2828291657975459 2.5049255895371338 -2.3161940716682596 -0.64007056234717497 0.84707651250403038 -1.4627380486966783 0.44593671635248822 2.9134984848234389
leaf_weight=198 68 185 328 219 628 84 607 203 47 39 62 554 48 634 247 187 65 161 253 526 240 793 249 98 47 238 660 632 368 90
leaf_count=198 68 185 328 219 628 84 607 203 47 39 62 554 48 634 247 187 65 161 253 526 240 793 249 98 47 238 660 632 368 90
internal_value=0 0.946717 -0.899497 -0.669337 -0.911484 0.452207 1.94132 -1.76203 1.18569 -2.83632 0.178178 1.71657 -2.78429 -0.662027 -0.862819 0.170426 -1.02505 -1.39381 -0.615404 0.283634 -3.54084 0.0642244 0.611416 1.29021 -0.556316 -1.20057 1.00922 -1.24339 0.805076 3.73223
internal_weight=0 4267 4491 4014 3122 2850 1417 708 791 477 892 1259 251 2414 1780 2059 1533 858 315 1874 279 1319 577 705 675 457 744 793 555 158
internal_count=8758 4267 4491 4014 3122 2850 1417 708 791 477 892 1259 251 2414 1780 2059 1533 858 315 1874 279 1319 577 705 675 457 744 793 555 158
is_linear=0
shrinkage=0.1


Tree=11
num_leaves=31
num_cat=0
split_feature=6 3 102 15 5 102 22 31 85 29 22 22 100 41 101 73 6 59 109 107 108 35 91 84 34 108 22 57 46 93
split_gain=615016 178389 94053.6 89465.5 64513.4 53380.7 38951.8 37460.2 36128.5 32919.1 31015.1 29596.7 35176.2 27241.3 26713.9 23819.3 21909.1 21245.1 18019 18408.3 16570.6 16512.8 16497.9 16001.5 15446.1 14303.4 14091.1 13318.4 13018.5 12800.7
threshold=137.715 73.035000000000011 1.0000000180025095e-35 4668.8750000000009 98.985000000000014 1.0000000180025095e-35 3920.5000000000005 1.0000000180025095e-35 9550.5000000000018 533.50000000000011 1450.0000000000002 3061.5000000000005 18048.375000000004 37.500000000000007 8352.5000000000018 1101.0000000000002 202.94500000000002 2677303.3839285718 0.7579717231454528 0.37940952255126048 -0.38261652434306781 633.50000000000011 567.50000000000011 15312.250000000002 4686.3750000000009 0.14904226617617458 2916.0000000000005 1506598.0267857143 26.875000000000004 1731.7500000000002
decision_type=2 2 2 2 2 2 2 2 2 2 2 2 2 2 2 2 2 2 2 2 2 2 2 2 2 2 2 2 2 2
left_child=1 2 11 7 5 18 25 16 13 -8 -9 12 15 26 23 -1 -2 -12 -3 -20 -6 -16 -19 24 -7 -5 28 -14 -4 -11
right_child=3 4 8 6 20 14 9 10 -10 29 17 -13 27 -15 21 -17 -18 22 19 -21 -22 -23 -24 -25 -26 -27 -28 -29 -30 -31
leaf_value=-3.3338326685356372 1.4142120629171098 -0.40542471334902452 -3.150850530265819 0.89773570858757545 -0.19671793907099014 -1.9120843725750245 1.8994806651169585 -3.243352893124456 -4.4019530645438598 4.4364871085444584 0.79972653732007659 -0.20741150893248325 -0.6725753659949355 -0.19020944025706163 -3.2521556062901276 -0.52838424308404119 4.7648440945716137 0.12018976171831133 1.0446427621156649 -0.93285008501261479 0.43159131830563169 -1.3227817691330399 -1.9053106319904327 -1.8619216514726145 -0.41141026752093168 1.7854372191935397 -1.0158546831458808 -2.5352015799489518 -1.1792101562405246 2.7257756622470155
leaf_weight=33 276 1568 237 434 671 83 493 23 98 79 711 329 46 55 94 365 21 378 178 64 1121 84 45 148 395 312 48 232 39 98
leaf_count=33 276 1568 237 434 671 83 493 23 98 79 711 329 46 55 94 365 21 378 178 64 1121 84 45 148 395 312 48 232 39 98
internal_value=0 -0.585056 -1.53413 1.20028 -0.265828 -0.582652 1.76605 0.649302 -2.69047 2.31948 0.392136 -0.985294 -1.36388 -2.24792 -1.26069 -0.760997 1.65113 0.465872 -0.281471 0.521669 0.196326 -2.34166 -0.095289 -0.953314 -0.671988 1.269 -2.59723 -2.227 -2.87225 3.48931
internal_weight=0 5888 1482 2870 4406 2614 1416 1454 477 670 1157 1005 676 379 804 398 297 1134 1810 242 1792 178 423 626 478 746 324 278 276 177
internal_count=8758 5888 1482 2870 4406 2614 1416 1454 477 670 1157 1005 676 379 804 398 297 1134 1810 242 1792 178 423 626 478 746 324 278 276 177
is_linear=0
shrinkage=0.1


Tree=12
num_leaves=31
num_cat=0
split_feature=3 22 6 6 100 22 31 38 114 22 91 102 23 108 108 16 105 72 35 22 109 107 15 60 101 32 92 109 93 10
split_gain=505545 157497 93845 74262.4 55327.6 39878.3 39728.9 37760.4 34203.2 24172 23952.7 23917.3 27974.8 23344.3 22699.9 21003.3 20537.7 20151 19905.9 19001.4 18452.4 18244.9 17525.4 14642.9 13904.6 13567.7 15132.7 13209.2 13131.3 12692.5
threshold=121.11000000000001 1959.5000000000002 115.98500000000001 175.01000000000002 17754.625000000004 726.50000000000011 256.50000000000006 2072.5000000000005 0.6078576107927941 3332.0000000000005 319.50000000000006 1.0000000180025095e-35 1375.0000000000002 -0.18591160716291469 0.66623007452452032 333.50000000000006 8349.5000000000018 42521.000000000007 480.50000000000006 2868.5000000000005 0.76990160280674147 0.1294095225512602 4560.8750000000009 2245004.7380952383 8088.5000000000009 2369.5000000000005 20.500000000000004 0.66623007452452054 1285.6250000000002 61940.500000000007
decision_type=2 2 2 2 2 2 2 2 2 2 2 2 2 2 2 2 2 2 2 2 2 2 2 2 2 2 2 2 2 2
left_child=1 4 6 13 5 -1 20 10 9 25 -8 12 17 23 21 -6 -11 -5 -7 -12 -3 -10 -9 -2 -17 -4 -27 29 -29 -15
right_child=3 2 8 11 15 18 7 22 14 16 19 -13 -14 27 -16 24 -18 -19 -20 -21 -22 -23 -24 -25 -26 26 -28 28 -30 -31
leaf_value=-2.9836394253969196 0.83696732137313212 -0.38289875697546227 -0.13203961821656582 1.1113125811081854 -5.9559860360622414 -2.0047704102858055 -1.0415653056205441 -0.51250743436313262 2.234694566864234 0.76259976477196367 -2.9494507169723514 0.9380913208523487 3.0209803489036862 0.69887203584920732 0.36747540313433663 -1.4022033283280004 -1.3394134053817162 2.5620492523229577 -0.45633407454820979 -1.2161663333032313 0.62884640085339771 0.32810719066576377 1.3383106762712653 -0.013365115121594716 -3.0096825948343593 -0.54308113229970068 -2.5052339010513744 2.9175842063067714 1.1713314590709549 1.5698272646118552
leaf_weight=100 382 785 874 243 20 106 929 733 156 438 135 193 256 607 388 72 52 158 383 119 234 74 55 431 213 161 52 73 105 231
leaf_count=100 382 785 874 243 20 106 929 733 156 438 135 193 256 607 388 72 52 158 383 119 234 74 55 431 213 161 52 73 105 231
internal_value=0 -0.504368 -0.293012 1.14448 -1.73019 -1.16408 -0.657525 -0.919622 0.203522 -0.0435901 -1.27685 1.91679 2.2043 0.785555 0.834098 -2.82341 0.539529 1.68292 -0.791987 -2.1374 -0.150565 1.62127 -0.383326 0.386176 -2.60358 -0.30645 -1.0221 1.10514 1.88749 0.938956
internal_weight=0 6079 5185 2679 894 589 2990 1971 2195 1577 1183 850 657 1829 618 305 490 401 489 254 1019 230 788 813 285 1087 213 1016 178 838
internal_count=8758 6079 5185 2679 894 589 2990 1971 2195 1577 1183 850 657 1829 618 305 490 401 489 254 1019 230 788 813 285 1087 213 1016 178 838
is_linear=0
shrinkage=0.1


Tree=13
num_leaves=31
num_cat=0
split_feature=6 34 5 102 102 22 78 22 32 76 38 29 105 76 31 31 18 22 43 14 12 101 84 62 22 17 6 108 93 97
split_gain=416461 111170 84367.6 47690.6 47141.1 42564.8 35969 26325.1 24616.2 24311.6 22231.1 21315.5 20584.2 20583.6 21162.4 19560.6 19342.3 18999.4 18819.3 17260 17072.5 15490.4 17585.2 15279.2 14516.3 11651 11636.6 11456.5 11177.9 11129.3
threshold=130.68000000000004 4429.2500000000009 146.38500000000002 1.0000000180025095e-35 1.0000000180025095e-35 3086.5000000000005 6350.2864094343959 1324.5000000000002 776.50000000000011 102.62500000000001 490.50000000000006 730.50000000000011 8179.5000000000009 128.37500000000003 21.500000000000004 968.50000000000011 675.00000000000011 3317.0000000000005 374.62500000000006 82.500000000000014 4306.5000000000009 7703.0000000000009 22229.000000000004 1581.6250000000002 4213.5000000000009 284.50000000000006 40.595000000000006 -0.79321463111734913 2495.6250000000005 2738.5000000000005
decision_type=2 2 2 2 2 2 2 2 2 2 2 2 2 2 2 2 2 2 2 2 2 2 2 2 2 2 2 2 2 2
left_child=1 4 5 13 10 7 16 -2 -9 15 -1 25 24 14 -3 -6 -5 -13 -12 -17 28 22 -8 -10 27 -4 -20 -7 -16 -28
right_child=2 3 11 6 9 12 21 8 23 -11 18 17 -14 -15 20 19 -18 -19 26 -21 -22 -23 -24 -25 -26 -27 29 -29 -30 -31
leaf_value=0.24167479720587531 -2.794712518056234 0.41471241752891985 -0.26462537404149772 0.074714839868829583 -1.8653788048554869 0.32188234274983407 -0.66851476574308077 0.65072768723845487 -0.032596293849592166 -0.044067388620132056 -0.54827328458580193 1.4984483967552771 -0.78393338861919593 0.545532380605531 -0.22668088074307891 -6.1823236179351815 -0.92511721672155911 2.8624980251498635 -4.0618368148803716 -3.0561388566399255 0.50131439195972216 -2.7400421563236197 -2.0231492642814306 -1.4293432934271111 1.8103025986999275 1.3538751257872423 -1.242216334184822 1.1282096835164024 -0.71465106273412227 -2.6006771403551103
leaf_weight=120 30 437 48 384 153 250 218 625 562 39 227 212 63 409 1050 20 390 197 20 151 212 87 171 91 215 606 245 597 849 80
leaf_count=120 30 437 48 384 153 250 218 625 562 39 227 212 63 409 1050 20 390 197 20 151 212 87 171 91 215 606 245 597 849 80
internal_value=0 -0.562076 0.846008 -0.331901 -1.47994 0.521296 -0.849747 0.13339 0.202125 -2.40288 -0.995796 1.58921 0.972301 -0.112994 -0.218699 -2.68681 -0.429077 2.15546 -1.25541 -3.42177 -0.349822 -1.53378 -1.264 -0.227243 1.07648 1.23509 -1.72068 0.890215 -0.444841 -1.57661
internal_weight=0 5262 3496 4207 1055 2433 1250 1308 1278 363 692 1063 1125 2957 2548 324 774 409 572 171 2111 476 389 653 1062 654 345 847 1899 325
internal_count=8758 5262 3496 4207 1055 2433 1250 1308 1278 363 692 1063 1125 2957 2548 324 774 409 572 171 2111 476 389 653 1062 654 345 847 1899 325
is_linear=0
shrinkage=0.1


Tree=14
num_leaves=31
num_cat=0
split_feature=5 22 35 6 6 5 22 60 32 91 35 32 31 108 93 108 36 14 111 28 101 25 109 62 91 35 60 7 37 68
split_gain=340443 111335 67568.2 51979.7 39989.1 36380.6 31302.1 29013.6 23696.5 18137.7 18061.1 17886.4 17502.3 17148.9 18796.3 16991.1 15951.6 15675.1 15198.9 19324.1 14140 13868 13047 12922 20611.2 16922.7 13349.5 11296.6 10078 9938.75
threshold=115.105 1959.5000000000002 763.50000000000011 175.01000000000002 94.995000000000019 56.45000000000001 3146.5000000000005 3645826.4583333335 564.50000000000011 694.50000000000011 274.00000000000006 1695.5000000000002 850.50000000000011 -0.81541827704133174 1123.8750000000002 0.13050337113974123 611.50000000000011 79.500000000000014 0.25000000000000017 2250.0000000000005 8495.0000000000018 1550.0000000000002 0.72007932650818696 1454.6250000000002 569.50000000000011 362.50000000000006 3450299.0833333335 8839.7500000000018 3381.5000000000005 1089.5000000000002
decision_type=2 2 2 2 2 2 2 2 2 2 2 2 2 2 2 2 2 2 2 2 2 2 2 2 2 2 2 2 2 2
left_child=1 5 4 11 15 10 -4 8 22 23 29 18 -9 -5 -15 28 -13 -14 -2 -20 -7 -12 -6 25 26 -10 -25 -16 -3 -1
right_child=3 2 6 13 7 20 -8 12 9 -11 21 16 17 14 27 -17 -18 -19 19 -21 -22 -23 -24 24 -26 -27 -28 -29 -30 -31
leaf_value=-5.6529933112008237 0.50324305731154106 -2.4197802435813678 -0.10415220244093706 0.81517730589006465 0.1195256616169766 -0.65462416171202376 1.0838231542717558 -0.55405401921862929 1.2233251025137448 -3.2253812335786365 0.27090744440658737 -1.5875690434195779 -3.7141193062067033 2.8365734177102384 1.1240134247686975 -0.68232593588215862 0.28146574526478202 -1.2703295135334747 0.99369348980712968 3.3085640373884853 -2.1523902804454167 -2.1341134585113593 1.100146661206252 -0.66451246732614822 -2.1169093059168924 -0.13745586842311719 0.020889155263906473 2.1684452621233947 -1.2220583412777726 -2.7523450074372473
leaf_weight=21 914 108 408 204 551 395 486 497 105 21 26 55 32 152 258 461 269 146 707 38 75 308 180 669 72 705 494 173 201 27
leaf_count=21 914 108 408 204 551 395 486 497 105 21 26 55 32 152 258 461 269 146 707 38 75 308 180 669 72 705 494 173 201 27
internal_value=0 -0.424052 -0.248428 0.916686 -0.414939 -1.48274 0.54166 -0.270348 -0.128338 -0.301475 -2.20756 0.643787 -0.858792 1.60431 1.88044 -1.06691 -0.0358087 -1.70966 0.77651 1.11177 -0.893629 -1.9469 0.360992 -0.27145 -0.475026 0.0389417 -0.373379 1.54324 -1.64068 -4.02138
internal_weight=0 5988 5136 2770 4242 852 894 3472 2797 2066 382 1983 675 787 583 770 324 178 1659 745 470 334 731 2045 1235 810 1163 431 309 48
internal_count=8758 5988 5136 2770 4242 852 894 3472 2797 2066 382 1983 675 787 583 770 324 178 1659 745 470 334 731 2045 1235 810 1163 431 309 48
is_linear=0
shrinkage=0.1


Tree=15
num_leaves=31
num_cat=0
split_feature=6 3 22 22 108 102 29 3 109 101 102 107 35 101 23 84 58 62 62 6 95 91 23 95 77 100 6 99 27 38
split_gain=280030 90392.4 56193.4 43105.1 37612.9 28238.7 27722.1 27536 20671.1 20508.4 19783.9 18883.2 18147.6 22311.1 17872.2 16523.2 15547.4 15461.6 14211.5 13222.7 11325 11165.5 10884.1 11589.8 10499.1 9761.22 9547.21 9002.62 10923.7 8379.79
threshold=140.00500000000002 84.885000000000019 2947.5000000000005 3337.5000000000005 0.14904226617617458 1.0000000180025095e-35 391.50000000000006 36.040000000000013 0.7579717231454528 7798.5000000000009 1.0000000180025095e-35 0.37940952255126048 579.51894893519591 6442.0000000000009 1025.0000000000002 24624.750000000004 4473245.4910714291 1603.3750000000002 1515.8750000000002 120.70500000000001 11980.875000000002 349.50000000000006 1425.0000000000002 3363.8750000000005 10.500000000000002 15041.250000000002 112.93500000000002 241.50000000000003 452.50000000000006 490.50000000000006
decision_type=2 2 2 2 2 2 2 2 2 2 2 2 2 2 2 2 2 2 2 2 2 2 2 2 2 2 2 2 2 2
left_child=1 2 4 10 7 8 18 15 19 29 14 -10 13 -7 17 25 -4 -2 -5 -3 -17 -11 -8 -24 -12 -1 -9 28 -16 -6
right_child=3 5 16 6 9 12 22 26 11 21 24 -13 -14 -15 27 20 -18 -19 -20 -21 -22 -23 23 -25 -26 -27 -28 -29 -30 -31
leaf_value=-0.58838872386188046 0.50353483821990719 -0.20938229559590671 -0.53713276648085639 1.1836048588494958 0.41015487774435821 -0.57885217056475102 1.516718863101973 -1.4678624062122647 1.3304689939300567 -0.72554427342755456 0.35551942440937873 -0.43012223746403155 -0.16173257080111339 -2.1814128985146768 1.2952793343110127 -2.9694514866532953 0.40449406422026785 -1.0513923694938423 0.10490236124609942 0.26482316820953899 -5.7290018081665046 -2.6323294491890601 1.4907794437060753 3.3938859707365432 -0.70667394915742154 -2.3083807534235117 -0.54482749180026246 0.85115016600334803 3.3439300063778377 -0.55882791435323154
leaf_weight=41 434 1353 424 837 116 346 138 482 229 56 195 83 651 116 111 58 299 75 143 1040 20 68 48 96 178 169 146 385 34 387
leaf_count=41 434 1353 424 837 116 346 138 482 229 56 195 83 651 116 111 58 299 75 143 1040 20 68 48 96 178 169 146 385 34 387
internal_value=0 -0.374874 -0.875208 0.852931 -1.21609 -0.0779244 1.27762 -1.62457 0.0965246 -0.619326 0.473357 0.862107 -0.5019 -0.981227 0.697634 -2.4342 -0.147719 0.27442 1.0262 -0.00329217 -3.67703 -1.7712 2.15134 2.75952 -0.151372 -1.97257 -1.25327 1.10408 1.77565 -0.335365
internal_weight=0 6084 2266 2674 1543 3818 1262 916 2705 627 1412 312 1113 462 1039 288 723 509 980 2393 78 124 282 144 373 210 628 530 145 503
internal_count=8758 6084 2266 2674 1543 3818 1262 916 2705 627 1412 312 1113 462 1039 288 723 509 980 2393 78 124 282 144 373 210 628 530 145 503
is_linear=0
shrinkage=0.1


Tree=16
num_leaves=31
num_cat=0
split_feature=5 22 22 105 108 6 32 109 72 31 63 40 93 76 108 31 93 93 89 60 100 22 44 84 3 1 6 18 100 57
split_gain=231614 79456.1 47713.8 47640.6 35711.1 30397.3 29310.5 23257.8 23443.7 22322.8 21917.6 16776.9 16164.8 17134.6 13762.5 13669.1 13326.5 13236.6 16057.9 11990.6 15552.4 11601.9 11120.1 10930.1 10064.6 9690.52 9640.16 9563.03 9458.11 9281.5
threshold=106.99500000000002 1324.5000000000002 3716.5000000000005 1155.5000000000002 0.16747693666954469 90.00500000000001 1391.5000000000002 0.69363975947873346 29171.500000000004 1346.5000000000002 5715.5000000000009 12658.375000000002 1800.0000000000002 83.125000000000014 -0.38261652434306781 850.50000000000011 2023.6250000000002 1104.1250000000002 372.50000000000006 2212805.7999198078 10052.125000000002 2905.5000000000005 135.50000000000003 21099.250000000004 176.18000000000004 85.805000000000021 49.070000000000007 950.00000000000011 17610.750000000004 1660304.7345385677
decision_type=2 2 2 2 2 2 2 2 2 2 2 2 2 2 2 2 2 2 2 2 2 2 2 2 2 2 2 2 2 2
left_child=1 16 4 9 5 -3 11 19 26 -2 -4 14 23 15 -5 -14 -1 18 24 -6 -21 27 -18 -7 -16 -23 -9 -15 -29 -11
right_child=3 2 10 6 7 12 -8 8 -10 29 -12 -13 13 21 17 -17 22 -19 -20 20 -22 25 -24 -25 -26 -27 -28 28 -30 -31
leaf_value=-1.2357966565106013 2.1960665260381367 -1.653838867686185 1.030146242922507 0.19646557591532329 0.39890750813593229 -0.015162093510576262 -0.23635006592982216 -1.8957132028043269 0.90518392792119151 1.102880493417739 -0.24671126182570502 3.2847650984059209 -0.70852232043542684 -0.56462660948471033 0.92829822152691743 -1.8389786544742934 -4.3974830097622348 0.49516624374440632 3.8619756471543085 -0.0628769750248072 -0.76644862668390734 -0.2473066620790122 -2.1883618557698106 -0.91902455590842735 2.9146215385860867 1.5470925995797824 -0.097384734419930702 -0.65862362200105695 -2.2538372554458106 -0.29746131502530154
leaf_weight=146 201 281 356 657 205 657 534 40 366 658 216 23 210 432 462 218 27 757 21 609 649 342 146 168 27 33 117 71 78 51
leaf_count=146 201 281 356 657 205 657 534 40 366 658 216 23 210 432 462 218 27 757 21 609 649 342 146 168 27 33 117 71 78 51
internal_value=0 -0.408769 -0.312045 0.646966 -0.421949 -0.674208 0.419963 -0.105673 0.466682 1.26586 0.547976 0.599968 -0.549592 -0.758448 0.567874 -1.28432 -1.93937 0.760466 1.15425 -0.310281 -0.425848 -0.523018 -2.53314 -0.199221 1.03797 -0.0893995 -0.555558 -0.802892 -1.4937 1.00215
internal_weight=0 5367 5048 3391 4476 2490 2481 1986 523 910 572 1947 2209 1384 1924 428 319 1267 510 1463 1258 956 173 825 489 375 157 581 149 709
internal_count=8758 5367 5048 3391 4476 2490 2481 1986 523 910 572 1947 2209 1384 1924 428 319 1267 510 1463 1258 956 173 825 489 375 157 581 149 709
is_linear=0
shrinkage=0.1


Tree=17
num_leaves=31
num_cat=0
split_feature=6 34 105 31 108 115 64 84 101 114 101 97 17 62 38 105 15 55 95 43 35 12 28 108 84 94 59 22 12 7
split_gain=191620 51731.5 48928.7 27568.2 23627 22764.9 20102 18050.1 17604.9 16525.9 14867.5 19127.4 17118.3 14742.2 14274.8 14189.5 12822 12059.5 11692.3 11591.4 11584.7 11225.1 10912.5 10184.9 9566.57 9355.01 8956.72 8778.86 8691.42 8443.74
threshold=127.92000000000002 4429.2500000000009 1785.5000000000002 1.0000000180025095e-35 -0.34781004316078107 0.81174490092936691 1660.5000000000002 11104.250000000002 8352.5000000000018 0.6078576107927941 10400.000000000002 4652.0000000000009 304.50000000000006 1515.8750000000002 490.50000000000006 6717.5000000000009 4592.3750000000009 1235.0000000000002 19485.750000000004 360.87500000000006 617.50000000000011 4031.5000000000005 1573.0000000000002 -0.45057618369530988 15517.750000000002 163.50000000000003 2330552.7857142859 2027.0000000000002 4187.5000000000009 5473.7500000000009
decision_type=2 2 2 2 2 2 2 2 2 2 2 2 2 2 2 2 2 2 2 2 2 2 2 2 2 2 2 2 2 2
left_child=1 5 6 15 7 14 29 8 28 26 12 -12 21 -7 -1 -4 22 -15 25 -16 -10 -5 -6 -9 -14 -17 -8 -23 -3 -2
right_child=2 4 3 10 16 13 9 23 20 -11 11 -13 24 17 19 18 -18 -19 -20 -21 -22 27 -24 -25 -26 -27 -28 -29 -30 -31
leaf_value=0.24169341258141175 -0.94958919896499117 -0.29922615074738862 0.57566927321206196 -0.21517043492409607 -0.185620023972181 0.21291942971367994 0.76829871989608256 -0.89803472871672418 -2.3153664923849564 1.8979847886564589 -0.10597346595499275 -1.8197604191200487 -0.037570845668102114 -1.8890890009011383 -0.159584071000831 -0.45385794531215318 1.2695209693991476 -4.4558149844408037 3.825377358992895 -1.1775858354236106 -0.62568048978583857 -1.257191283052618 0.39887998786452528 -2.4312463283538821 -1.1753312866828021 1.8777633051329023 1.5482672307455896 0.77693885506893323 0.45872906864779983 0.58994770268337771
leaf_weight=119 38 700 304 169 1875 31 543 445 63 266 259 87 566 216 144 22 72 20 24 501 114 22 385 48 85 79 202 596 193 570
leaf_count=119 38 700 304 169 1875 31 543 445 63 266 259 87 566 216 144 22 72 20 24 501 114 22 385 48 85 79 202 596 193 570
internal_value=0 -0.412557 0.530338 0.224704 -0.24583 -1.04243 0.948107 -0.54667 -0.315999 1.22137 0.051625 -0.536897 0.19323 -1.8373 -0.764645 0.944454 -0.0441952 -2.10661 1.84134 -0.950311 -1.22709 0.507031 -0.0860481 -1.04731 -0.186126 1.36989 0.97978 0.704526 -0.135413 0.493727
internal_weight=0 4926 3832 2213 3895 1031 1619 1563 1070 1011 1784 346 1438 267 764 429 2332 236 125 645 177 787 2260 493 651 101 745 618 893 608
internal_count=8758 4926 3832 2213 3895 1031 1619 1563 1070 1011 1784 346 1438 267 764 429 2332 236 125 645 177 787 2260 493 651 101 745 618 893 608
is_linear=0
shrinkage=0.1


Tree=18
num_leaves=31
num_cat=0
split_feature=6 5 22 100 14 84 22 29 105 59 102 105 62 108 29 12 32 35 31 73 32 25 14 40 6 100 23 93 101 15
split_gain=157304 57810.7 39440.7 29982.5 29355.3 25140.3 21290.3 20086.4 17081.6 17057.7 15352.5 15163.4 12597.5 13483.1 12095.1 12454.9 11945 11601.6 10783.6 10620.5 9555.84 9477.02 9137.26 8758.36 8174.37 7634.22 7528.31 7368.78 6618.32 6976.71
threshold=145.15000000000001 89.595000000000013 2947.5000000000005 17754.625000000004 83.500000000000014 24624.750000000004 3317.0000000000005 1845.5000000000002 4711.5000000000009 2978079.8869047626 1.0000000180025095e-35 105.50000000000001 1660.2500000000002 0.24066998952941765 294.50000000000006 4065.5000000000005 1732.5000000000002 771.50000000000011 61.500000000000007 1101.0000000000002 59.500000000000007 1690.7622473449812 151.50000000000003 2187.0000000000005 105.01000000000001 3523.1250000000005 1222.5000000000002 2408.0000000000005 12102.500000000002 4662.1250000000009
decision_type=2 2 2 2 2 2 2 2 2 2 2 2 2 2 2 2 2 2 2 2 2 2 2 2 2 2 2 2 2 2
left_child=1 2 3 5 -5 18 12 22 -6 17 19 -3 13 23 15 26 -14 20 -1 -7 -4 -16 -8 -2 -20 -15 -13 -9 -25 -30
right_child=6 11 9 4 8 10 7 27 -10 -11 -12 14 16 25 21 -17 -18 -19 24 -21 -22 -23 -24 28 -26 -27 -28 -29 29 -31
leaf_value=0.47836351674749933 -1.5822528692392204 -2.3123684035407175 1.1305189344190782 -5.1149988079071047 -0.4355643746443093 -2.8606795106615341 0.072200347731510794 3.2766497632265095 -1.5396403849005222 -0.87970642985945402 -1.8948262930792923 -0.50490277256415439 -0.052966026088688528 2.0954052064997648 0.24173828845625397 0.17078517334176913 -2.4427818388938904 0.86822931605698772 -0.68883537492763836 -0.52472968160882039 -0.16295260775500331 1.1328003752495368 0.99720670182272286 0.42300577367913539 -0.01240481818572451 0.80052933165411688 0.014494131949057912 1.3333280876278879 -2.0610960169978765 0.16855124820851619
leaf_weight=173 26 27 62 20 195 21 120 50 498 220 170 650 128 52 600 1303 25 162 418 266 725 149 970 470 312 366 489 32 23 36
leaf_count=173 26 27 62 20 195 21 120 50 498 220 170 650 128 52 600 1303 25 162 418 266 725 149 970 470 312 366 489 32 23 36
internal_value=0 -0.25277 -0.55081 -0.812733 -1.33797 -0.537367 0.710573 1.00892 -1.22897 -0.0863394 -1.14173 0.0474923 0.400038 0.532674 0.0674598 -0.0403629 -0.443459 0.0975813 -0.231502 -0.695653 -0.0610527 0.418999 0.895371 0.209616 -0.399731 0.961614 -0.281913 2.51828 0.297685 -0.700633
internal_weight=0 6460 3242 2073 713 1360 2298 1172 693 1169 457 3218 1126 973 3191 2442 153 949 903 287 787 749 1090 555 730 418 1139 82 529 59
internal_count=8758 6460 3242 2073 713 1360 2298 1172 693 1169 457 3218 1126 973 3191 2442 153 949 903 287 787 749 1090 555 730 418 1139 82 529 59
is_linear=0
shrinkage=0.1


Tree=19
num_leaves=31
num_cat=0
split_feature=3 6 22 6 108 109 108 100 12 40 31 102 23 114 51 46 37 55 23 72 32 34 37 14 101 99 95 15 89 1
split_gain=128738 42538.1 41047.1 23981.8 20213.1 24596.7 16531.6 16018.1 16089.2 13321.4 14820.4 12263.5 11529.2 11462.9 10992.2 9983.67 9875.05 9843.09 9312.91 8997 8567.44 8491.34 8391.1 9801.17 8768.53 8317.77 8209.8 8153 8146.56 7371.14
threshold=102.39876001831924 171.76000000000002 1324.5000000000002 92.110000000000014 0.16747693666954469 0.76990160280674147 -0.18591160716291469 8846.5000000000018 4299.5000000000009 2720.6250000000005 420.50000000000006 1.0000000180025095e-35 1375.0000000000002 0.6078576107927941 1429.5000000000002 24.875000000000004 3448.1250000000005 1562.0000000000002 1076.5000000000002 42521.000000000007 1818.5000000000002 12953.500000000002 2395.5000000000005 171.50000000000003 6583.0000000000009 1610.5000000000002 11641.000000000002 4493.1250000000009 291.50000000000006 41.845000000000006
decision_type=2 2 2 2 2 2 2 2 2 2 2 2 2 2 2 2 2 2 2 2 2 2 2 2 2 2 2 2 2 2
left_child=2 6 17 13 9 27 20 26 21 10 -5 12 19 16 -14 -11 28 18 -1 -3 -2 -9 -12 24 25 -24 -8 -6 -4 -17
right_child=1 11 3 4 5 -7 7 8 -10 15 22 -13 14 -15 -16 29 -18 -19 -20 -21 -22 -23 23 -25 -26 -27 -28 -29 -30 -31
leaf_value=-1.8303932837324759 0.10462920255134892 0.52145692801631582 -0.3204104172997177 -0.1773128790680385 -0.18180917720105272 0.8985824443010334 0.55260681744058127 -0.46585981789532299 0.69225797662171473 -0.36882905222325318 -2.4998597878962756 0.32339448921317077 1.423636899315277 -0.35764124134023279 3.2728289604187015 0.080707226175153676 -0.7678262459154982 -3.2662453736577719 -0.69204993096750178 1.4243112459778786 -0.45633309713286985 0.33894105133120767 -0.59808166035027666 0.046668763641411294 -1.6327316343272107 -2.3372316145896912 1.2737865613413744 0.89683677983284005 -2.1002065789381059 1.2050360542268326
leaf_weight=155 1147 296 32 454 1067 306 749 388 315 465 32 228 245 336 37 231 274 28 134 176 357 198 330 104 160 30 200 75 131 78
leaf_count=155 1147 296 32 454 1067 306 749 388 315 465 32 228 245 336 37 231 274 28 134 176 357 198 330 104 160 30 200 75 131 78
internal_value=0 0.387183 -0.379653 -0.294988 -0.17857 0.102375 0.217703 0.41788 0.115891 -0.394497 -0.616543 0.966038 1.16037 -0.796807 1.66626 -0.0760586 -1.13447 -1.47603 -1.30258 0.858114 -0.0285247 -0.193931 -0.920523 -0.839531 -1.01677 -0.743011 0.704594 -0.11097 -1.7508 0.364518
internal_weight=0 4336 4422 4105 3332 1448 3354 1850 901 1884 1110 982 754 773 282 774 437 317 289 472 1504 586 656 624 520 360 949 1142 163 309
internal_count=8758 4336 4422 4105 3332 1448 3354 1850 901 1884 1110 982 754 773 282 774 437 317 289 472 1504 586 656 624 520 360 949 1142 163 309
is_linear=0
shrinkage=0.1


Tree=20
num_leaves=31
num_cat=0
split_feature=15 31 40 22 114 108 65 22 28 43 93 46 60 105 59 100 12 59 108 89 100 35 84 89 6 1 60 59 32 63
split_gain=107044 51347.8 48206.2 26032.7 17790.9 16242.8 16070.2 14537.7 13359 12323.6 12236.4 11658 11430.8 11345.4 10558.2 10381.2 10648.8 10251.7 8879.63 15636.9 8462.42 7848.97 7777.57 7725.89 7383.92 7302.78 7171.85 7103.55 7087.84 6668.7
threshold=4641.2500000000009 91.500000000000014 2720.6250000000005 1362.5000000000002 0.6078576107927941 0.16747693666954469 203.50000000000003 3332.0000000000005 1936.5000000000002 394.12500000000006 2001.6250000000002 20.875000000000004 3319462.6398809529 8281.5000000000018 2982669.4047619053 18048.375000000004 4300.5000000000009 2330552.7857142859 -0.29475517441090449 306.50000000000006 12636.125000000002 543.50000000000011 26755.250000000004 331.50000000000006 182.85500000000005 0.37500000000000006 3654834.8363095243 2330552.7857142859 582.50000000000011 2326.5000000000005
decision_type=2 2 2 2 2 2 2 2 2 2 2 2 2 2 2 2 2 2 2 2 2 2 2 2 2 2 2 2 2 2
left_child=1 6 3 -3 17 10 8 15 -1 14 22 -11 -12 25 -7 26 29 28 19 -14 24 -21 -5 -10 -8 -9 -4 -6 -2 -17
right_child=4 2 7 5 27 9 20 13 23 11 12 -13 18 -15 -16 16 -18 -19 -20 21 -22 -23 -24 -25 -26 -27 -28 -29 -30 -31
leaf_value=0.60288416510187715 0.6555658113807441 -1.5588262206399761 0.040437450090494868 -0.22034584205844496 1.0831120661535008 0.055770350890489588 0.25726652080378021 -0.31919624246656897 1.1799974990387758 -0.41147353762343269 -0.54898812867468227 -2.1478496669502607 -3.9375190734863281 -0.38965663382671573 -0.97272582712599576 -0.13534534714963972 0.081888095947903819 1.1689555356700216 -0.73954847299082338 -1.8660592022120572 -0.36740538975656301 -0.76447979909452535 -1.0943015063618078 3.2517502205239404 1.658374875325423 0.61798222456127405 -1.0159625978154296 2.2317698863845679 0.13141212856067663 -1.095604936670566
leaf_weight=179 500 261 1170 498 409 802 1058 96 36 116 342 58 27 183 114 98 186 199 172 157 224 110 128 36 39 621 68 62 533 276
leaf_count=179 500 261 1170 498 409 802 1058 96 36 116 342 58 27 183 114 98 186 199 172 157 224 110 128 36 39 621 68 62 533 276
internal_value=0 -0.171766 -0.31622 -0.608064 0.711574 -0.509749 0.332077 -0.0149653 1.06557 -0.218779 -0.730918 -0.990266 -0.988036 0.31313 -0.0722303 -0.179195 -0.536464 0.511727 -1.31026 -1.64414 0.192707 -1.41222 -0.399046 2.21587 0.307078 0.492502 -0.0175878 1.23432 0.385117 -0.843986
internal_weight=0 7055 5483 2785 1703 2524 1572 2698 251 1090 1434 174 808 900 916 1798 560 1232 466 294 1321 267 626 72 1097 717 1238 471 1033 374
internal_count=8758 7055 5483 2785 1703 2524 1572 2698 251 1090 1434 174 808 900 916 1798 560 1232 466 294 1321 267 626 72 1097 717 1238 471 1033 374
is_linear=0
shrinkage=0.1


Tree=21
num_leaves=31
num_cat=0
split_feature=6 82 100 12 102 22 101 29 61 22 114 32 85 101 107 9 97 108 43 16 100 95 11 62 87 23 1 93 7 57
split_gain=89020.1 35603.4 28095.9 30701.9 17201.2 16129.3 18743.3 14581.8 12245.9 12202.6 11700.4 10729.9 10446.9 9620.56 9181.1 8267.47 7966.44 8094.6 7940.02 7891.22 7482 7394.93 7391.88 6940.58 6917.56 6845.3 6298.34 5902.04 5730.71 5489.61
threshold=145.60500000000005 816.50000000000011 8918.5000000000018 4259.5000000000009 1.0000000180025095e-35 2905.5000000000005 8088.5000000000009 2049.5000000000005 2767.8750000000005 2628.5000000000005 0.6078576107927941 1517.5000000000002 10614.500000000002 2164.0000000000005 0.37940952255126048 44580.375000000007 2528.0000000000005 -0.92371800225709011 366.87500000000006 407.50000000000006 2329.3750000000005 18359.125000000004 24226.500000000004 1258.3750000000002 700.87500000000011 1975.0000000000002 0.58500000000000008 2192.3750000000005 8034.8750000000009 1863562.2648809527
decision_type=2 2 2 2 2 2 2 2 2 2 2 2 2 2 2 2 2 2 2 2 2 2 2 2 2 2 2 2 2 2
left_child=1 2 10 5 13 6 -4 8 16 19 21 -10 20 -3 23 -8 29 -18 -7 -5 -6 -1 -15 -12 -22 -9 -13 -14 -24 -2
right_child=7 4 3 9 12 18 15 25 11 -11 14 26 27 22 -16 -17 17 -19 -20 -21 24 -23 28 -25 -26 -27 -28 -29 -30 -31
leaf_value=-0.0062756835973210362 0.49128395571251932 0.039918811469146151 -0.43399933948509606 -0.49707998980092233 -0.10963866912643426 0.091641431885124747 -1.971597091890261 1.2066377347507398 0.33858273227802904 0.51118644155085513 1.790341373682022 -2.1682671294970945 -1.7076136299422089 -2.2153595439592997 0.15195517410032172 -0.98083363558877912 -0.034526094756065273 1.0541480683611337 -0.43400040357726327 0.55500535216027247 -1.9417402873898664 0.79912072784838184 -0.50763722669968103 0.68825216581579296 -0.80678951322407166 3.0579734464486439 -0.33339640592336656 -3.5821857625787907 -2.2422790317237378 -0.81136516709538076
leaf_weight=1414 667 290 741 277 80 517 122 119 646 563 75 22 71 30 265 272 78 549 647 96 86 124 399 240 143 24 125 22 20 34
leaf_count=1414 667 290 741 277 80 517 122 119 646 563 75 22 71 30 265 272 78 549 647 96 86 124 399 240 143 24 125 22 20 34
internal_value=0 -0.188245 -0.0801431 -0.265517 -0.695405 -0.462086 -0.730322 0.539957 0.47406 0.217294 0.202994 0.163112 -1.22184 -0.409035 0.585731 -1.28762 0.65974 0.918715 -0.200532 -0.226302 -0.942174 0.0586587 -0.699006 0.950654 -1.23302 1.51735 -0.608003 -2.15106 -0.590436 0.428103
internal_weight=0 6494 5353 3235 1141 2299 1135 2264 2121 936 2118 793 402 739 580 394 1328 627 1164 373 309 1538 449 315 229 143 147 93 419 701
internal_count=8758 6494 5353 3235 1141 2299 1135 2264 2121 936 2118 793 402 739 580 394 1328 627 1164 373 309 1538 449 315 229 143 147 93 419 701
is_linear=0
shrinkage=0.1


Tree=22
num_leaves=31
num_cat=0
split_feature=6 22 32 34 59 108 31 59 60 108 93 109 58 28 62 59 40 32 14 39 44 95 59 60 101 43 5 85 95 101
split_gain=74296.5 29109.5 22727 19947.4 16773.4 15642.2 12761.6 12204 11620.3 11548.8 11334.8 10986.8 9237.42 8784.51 8443.91 7482.57 7183.65 6733.63 6275.7 6675.41 5940.54 5807.48 5738.72 5704.86 4942.64 6572.28 4927.15 4896.48 4676.85 4609.08
threshold=115.98500000000001 3022.5000000000005 308.00000000000006 3907.8750000000005 2719400.3452380956 -0.29475517441090449 136.50000000000003 2330552.7857142859 3399583.2946428577 0.16747693666954469 1582.5000000000002 0.72007932650818696 4868657.1875000009 354.50000000000006 1515.8750000000002 2986308.9970238102 2146.8750000000005 1580.5000000000002 85.500000000000014 3315.0000000000005 189.50000000000003 5136.1250000000009 2948862.9494047626 2204902.2232142859 4347.5000000000009 366.87500000000006 219.77500000000003 6356.5000000000009 8938.0000000000018 3905.5000000000005
decision_type=2 2 2 2 2 2 2 2 2 2 2 2 2 2 2 2 2 2 2 2 2 2 2 2 2 2 2 2 2 2
left_child=3 2 22 6 5 12 -1 26 28 13 -9 24 -3 16 -4 17 -5 21 -8 -20 -16 -10 -2 -12 -11 -26 -7 -13 -6 -15
right_child=1 4 14 9 8 7 18 10 15 11 23 27 -14 29 20 -17 -18 -19 19 -21 -22 -23 -24 -25 25 -27 -28 -29 -30 -31
leaf_value=0.15255275602851595 0.41335792792860548 0.39382622288113445 -0.083343885222148209 -0.88383425992622389 -2.1126933471016263 0.66313058965703486 -2.4099854329053096 2.6134817853995731 0.034135154150165881 0.0051309042964652303 1.8609769989614902 0.83471308072744788 -1.4609268104125348 0.099666867227389724 -0.45266931923496279 -0.68794712250095769 -0.3525576863681108 -0.052582534889650714 -2.0523903702789883 -0.85572734347205293 -1.4690186156488176 0.78508773022837453 -0.57769957771224367 0.72980149613013356 -0.082182033819844957 -0.82931705515045651 2.0423398591853954 0.049429433829047617 -0.49237900666798223 -0.43038885799689669
leaf_weight=98 1014 655 994 483 23 637 34 70 143 607 69 177 28 368 406 74 538 257 53 387 67 368 62 126 256 218 27 144 79 296
leaf_count=98 1014 655 994 483 23 637 34 70 143 607 69 177 28 368 406 74 538 257 53 387 67 368 62 126 256 218 27 144 79 296
internal_value=0 0.246729 0.00718669 -0.343829 0.485053 0.681088 -0.886246 0.948185 0.150299 -0.243323 1.52191 -0.031279 0.317789 -0.419754 -0.248842 0.272413 -0.603886 0.364948 -1.10102 -0.999871 -0.596634 0.574939 0.356252 1.13006 -0.183825 -0.425801 0.719213 0.482436 -0.857744 -0.136623
internal_weight=0 5099 2543 3659 2556 1612 572 929 944 3087 265 1402 683 1685 1467 842 1021 768 474 440 473 511 1076 195 1081 474 664 321 102 664
internal_count=8758 5099 2543 3659 2556 1612 572 929 944 3087 265 1402 683 1685 1467 842 1021 768 474 440 473 511 1076 195 1081 474 664 321 102 664
is_linear=0
shrinkage=0.1


Tree=23
num_leaves=31
num_cat=0
split_feature=40 22 62 28 6 29 101 22 43 93 93 5 44 35 91 32 57 89 108 31 60 22 92 93 47 25 87 100 108 47
split_gain=61935.9 27170.2 24661 24661 15775.3 15270.2 12689.3 11804.2 10696.2 9718.59 8631.79 7763.49 7680.26 7085.81 8245 6310.31 6330.88 6207.93 9239.87 9277.5 6156.71 8217.88 7618.62 6083.71 6079.81 6071.92 6813.6 5948.72 5836.91 5428.67
threshold=4546.2485688115421 1324.5000000000002 1356.7500000000002 793.50000000000011 171.76000000000002 4.5000000000000009 3544.5000000000005 3673.0000000000005 371.12500000000006 1502.7500000000002 2023.6250000000002 230.00500000000002 135.50000000000003 633.50000000000011 617.50000000000011 2353.0000000000005 1847792.0148809527 307.50000000000006 -0.29475517441090449 1863.5000000000002 3340582.9494047626 2856.5000000000005 28.500000000000004 87.625000000000014 624.50000000000011 1860.0000000000002 862.37500000000011 3523.1250000000005 -0.92371800225709011 618.50000000000011
decision_type=2 2 2 2 2 2 2 2 2 2 2 2 2 2 2 2 2 2 2 2 2 2 2 2 2 2 2 2 2 2
left_child=1 10 5 8 15 7 -5 20 13 -10 -1 28 -12 14 23 16 24 18 -11 -20 21 -3 -22 -4 -2 -8 -27 -26 -6 -30
right_child=4 2 3 6 11 -7 25 -9 9 17 12 -13 -14 -15 -16 -17 -18 -19 19 -21 22 -23 -24 -25 27 26 -28 -29 29 -31
leaf_value=-0.54052480549138315 0.24210200784642427 -0.14474639725200938 -2.0721032694691703 0.37327034815930754 -0.12936805239537869 1.3286880748843153 -0.1491177052810034 0.90408737301893005 -0.22714777670905623 -2.5640507408913145 -3.0304277038574221 2.2824417294994479 -1.2694759496448327 -0.023734479441281348 -1.941754964987437 -0.18475236000772427 -0.24469178040406386 -0.6983420046088441 -0.59243023678660389 -2.6062803370612011 -0.26265151330347486 0.6037372673704593 -2.2940919053554536 -0.34634917413925281 2.0768280682819231 -0.01025041462410064 -2.4536108150482181 0.57110676424079787 0.52260412622592989 1.085819814387309
leaf_weight=151 1416 357 21 711 82 120 647 168 355 47 30 31 142 677 36 331 203 631 125 28 240 249 20 749 28 21 25 417 402 298
leaf_count=151 1416 357 21 711 82 120 647 168 355 47 30 31 142 677 36 331 203 631 125 28 240 249 20 749 28 21 25 417 402 298
internal_value=0 -0.202181 -0.147179 -0.262797 0.349783 0.26089 0.0764676 0.136968 -0.441264 -0.665119 -1.09225 0.730392 -1.57662 -0.262239 -0.462572 0.220582 0.285585 -0.852219 -1.3377 -0.960978 -0.01185 0.162799 -0.418916 -0.393415 0.343428 -0.228044 -1.33816 0.665849 0.668866 0.762373
internal_weight=0 5550 5227 4073 3208 1154 1404 1034 2669 1186 323 813 172 1483 806 2395 2064 831 200 153 866 606 260 770 1861 693 46 445 782 700
internal_count=8758 5550 5227 4073 3208 1154 1404 1034 2669 1186 323 813 172 1483 806 2395 2064 831 200 153 866 606 260 770 1861 693 46 445 782 700
is_linear=0
shrinkage=0.1


Tree=24
num_leaves=31
num_cat=0
split_feature=40 31 22 29 62 5 108 29 109 22 60 61 93 57 95 22 55 23 59 61 105 64 44 47 102 109 105 58 61 93
split_gain=50587.6 22797.6 22772.3 16934.1 16173.2 13946.9 9998.53 9572.44 9221.1 7787.37 8094.83 9993.44 7521.49 7506.49 7720.05 10199.3 6876.71 6503.55 6299.42 6121.05 6085.77 6191.28 6385.45 5928.5 5897.07 8637.19 5767.02 5776.64 5311.12 5254.48
threshold=2720.6250000000005 174.50000000000003 3780.5000000000005 1.0000000180025095e-35 1196.1250000000002 27.085000000000004 0.16747693666954469 2171.5000000000005 0.7579717231454528 2772.5000000000005 3336229.5208333335 1885.6250000000002 2001.6250000000002 481963.7916666668 25638.500000000004 2172.5000000000005 832.50000000000011 925.00000000000011 2972522.2559523811 4425.7500000000009 665.50000000000011 4993.5000000000009 173.50000000000003 627.50000000000011 1.0000000180025095e-35 0.76990160280674147 945.50000000000011 4697595.5089285718 3820.6250000000005 1379.8750000000002
decision_type=2 2 2 2 2 2 2 2 2 2 2 2 2 2 2 2 2 2 2 2 2 2 2 2 2 2 2 2 2 2
left_child=1 8 3 9 -3 6 16 26 -1 20 -11 -12 19 -14 15 28 -6 23 24 -7 -2 -22 -23 -13 25 29 27 -4 -15 -5
right_child=2 4 7 18 5 12 -8 -9 -10 10 11 17 13 14 -16 -17 -18 -19 -20 -21 21 22 -24 -25 -26 -27 -28 -29 -30 -31
leaf_value=-0.10805133736362466 -1.6493742193778358 0.40614438322960461 0.85670217575595498 0.75610569242451464 -1.204246312404198 0.064437136441765339 -0.53313065856665132 1.9004304136715682 0.52777920833014902 0.35633863344635458 -2.2237141760912809 -0.45168903929294735 0.02930024723457389 -2.4851784739805307 0.092474789685065603 -0.64314380433205764 -2.6470300115071814 0.30229385979599876 -0.42807210112033894 -0.47486729213331352 -0.13773411558965887 -0.52135751149508847 -2.3661066383123397 0.61832138955593108 0.012343424850588909 1.9158945407070544 0.31774420101317613 -0.19801937951866924 -1.1366678222827613 0.24334577390622433
leaf_weight=638 30 206 496 411 216 478 248 51 355 657 22 378 172 46 109 628 39 295 86 376 1123 86 24 60 230 46 725 58 80 389
leaf_count=638 30 206 496 411 216 478 248 51 355 657 22 378 172 46 109 628 39 295 86 376 1123 86 24 60 230 46 725 58 80 389
internal_value=0 -0.288291 0.200359 0.0767598 -0.444064 -0.517284 -0.985224 0.556937 0.11926 -0.0617008 0.0996673 -0.123688 -0.392682 -0.573939 -0.694167 -0.807886 -1.42491 -0.0606582 0.395505 -0.173008 -0.242106 -0.207866 -0.923848 -0.305112 0.46133 0.583395 0.503365 0.74628 -1.62898 0.506776
internal_weight=0 3591 5167 3837 2598 2392 503 1330 993 2675 1412 755 1889 1035 863 754 255 733 1162 854 1263 1233 110 438 1076 846 1279 554 126 800
internal_count=8758 3591 5167 3837 2598 2392 503 1330 993 2675 1412 755 1889 1035 863 754 255 733 1162 854 1263 1233 110 438 1076 846 1279 554 126 800
is_linear=0
shrinkage=0.1


Tree=25
num_leaves=31
num_cat=0
split_feature=6 102 29 80 22 108 3 59 22 109 109 58 59 43 10 106 26 46 59 63 109 57 84 93 109 26 58 108 31 39
split_gain=41405.4 19492.2 16154.6 13936.8 12938.7 12432.6 15431.1 12085 9303.33 8946.56 8920.2 7488.5 6931.87 7754.69 6438.79 7436.91 6288.31 6036 5965.62 5737.65 5694.15 5544.97 5406.31 5307.79 5941.06 5275.67 5255.4 5171.95 4826.68 4752.08
threshold=114.18000000000002 1.0000000180025095e-35 1300.0000000000002 380.50000000000006 2947.5000000000005 0.16747693666954469 36.040000000000013 2758645.7023809529 1040.5000000000002 0.7579717231454528 0.7579717231454528 4453047.4761904767 2972522.2559523811 394.12500000000006 53974.500000000007 -0.60355339059327384 365.50000000000006 17.375000000000004 2775436.2380952383 5208.0000000000009 0.72007932650818696 1812282.7797619049 20076.000000000004 2001.6250000000002 -0.056060643931374665 636.50000000000011 4259766.6547619058 -0.27678710975671245 108.50000000000001 3923.5000000000005
decision_type=2 2 2 2 2 2 2 2 2 2 2 2 2 2 2 2 2 2 2 2 2 2 2 2 2 2 2 2 2 2
left_child=5 2 4 16 8 6 22 9 -2 -6 19 -9 13 20 15 -5 -3 -15 -13 -4 -7 -17 -1 26 -25 -24 -8 -26 -11 -19
right_child=1 3 10 14 7 12 23 11 -10 28 -12 18 -14 17 -16 21 -18 29 -20 -21 -22 -23 25 24 27 -27 -28 -29 -30 -31
leaf_value=-0.82018951227554704 -1.8389940099031836 -0.17827728848806337 0.36086310420534579 -0.13583329620517112 0.48663088553614131 -0.01256081768895086 -0.3506266389513199 -0.44222668095847262 0.033694638662888118 2.6007575054168703 1.9317090135354265 -1.1712810595830283 -0.55897816036341119 0.18730485929470314 -0.085715994608265095 -1.3566667779011059 0.3659798647712465 -1.9481055227915445 0.35743002019619619 1.1398794923049327 0.48822460750798807 -0.33002709814825576 -2.652092863351871 -0.20519856008816389 -0.99588854792434101 -1.1372265502810479 0.18014781359337073 -0.22065375747913418 1.0652413525016964 -0.56625434020406584
leaf_weight=173 27 380 240 132 1043 723 496 207 1518 25 65 27 243 95 239 182 481 30 468 156 331 74 39 331 298 56 299 121 113 146
leaf_count=173 27 380 240 132 1043 723 496 207 1518 25 65 27 243 95 239 182 481 30 468 156 331 74 39 331 298 56 299 121 113 146
internal_value=0 0.172416 0.290189 -0.13539 0.215448 -0.274204 -0.452537 0.391428 0.000968041 0.586746 0.845964 0.0628372 -0.0680058 0.0220366 -0.494021 -0.745529 0.125773 -0.455064 0.274046 0.667748 0.144707 -1.0599 -1.15302 -0.33103 -0.521859 -1.75912 -0.151002 -0.772014 1.34341 -0.801797
internal_weight=0 5377 3889 1488 3428 3381 1813 1883 1545 1181 461 702 1568 1325 627 388 861 271 495 396 1054 256 268 1545 750 95 795 419 138 176
internal_count=8758 5377 3889 1488 3428 3381 1813 1883 1545 1181 461 702 1568 1325 627 388 861 271 495 396 1054 256 268 1545 750 95 795 419 138 176
is_linear=0
shrinkage=0.1


Tree=26
num_leaves=31
num_cat=0
split_feature=10 28 62 105 101 62 101 29 35 31 95 60 108 75 69 22 96 28 22 92 5 7 12 85 0 38 44 66 59 59
split_gain=34767.9 22741.3 16396.5 14634.2 13847.8 9934.12 11187.2 8679.27 8453.56 9795.82 8213.85 9292.74 7984.28 7899.75 7287.76 7066.42 7041.49 6923.61 6884.04 6259.36 5480.44 5380.71 5065.39 4333.67 4290.9 4286.56 4023.65 3907.45 3845.19 4131.27
threshold=52386.500000000007 1067.0000000000002 1447.6250000000002 8349.5000000000018 8352.5000000000018 1287.3750000000002 3544.5000000000005 674.50000000000011 371.50000000000006 1358.5000000000002 2089.3750000000005 3327789.4464285718 -0.34781004316078107 1742.5000000000002 410.50000000000006 2698.5000000000005 8014.5000000000009 1893.5000000000002 2516.0000000000005 28.500000000000004 161.55500000000004 9346.0000000000018 4303.5000000000009 2747.0000000000005 1.0000000180025095e-35 427.50000000000006 190.90484647112743 613.37500000000011 2972522.2559523811 2853456.0982142859
decision_type=2 2 2 2 2 2 2 2 2 2 2 2 2 2 2 2 2 2 2 2 2 2 2 2 2 2 2 2 2 2
left_child=1 2 10 7 8 17 20 16 9 12 -1 18 -4 -9 -11 -6 -2 -3 -12 27 -7 -15 -18 -23 -17 -20 -8 -13 29 -10
right_child=3 5 4 -5 15 6 26 13 28 14 11 19 -14 21 -16 24 22 -19 25 -21 -22 23 -24 -25 -26 -27 -28 -29 -30 -31
leaf_value=-1.4293672845913816 0.15994464978284884 0.5181533915027976 -0.81270395489836122 -0.39435296202030351 -1.2514112638812218 0.32418735924050696 -0.096965587814943799 1.8785772305185144 -0.24275836679121682 -2.8373002657523525 -0.18949786323154796 -0.11157390136892598 -0.074793414591585061 0.42433998230844738 -0.98493935369709829 0.3359443157911301 0.36083513868650385 2.0117873287200929 1.193265319412405 -1.5347592246241686 2.0007723844796419 1.574074141245063 1.0073497322883378 -0.03594176946651368 -0.72585314934452372 0.27977106479654368 -0.84162021048636326 -1.050967146134844 -0.54866999208060063 0.10719268244673218
leaf_weight=39 1345 100 262 271 252 775 577 55 888 26 348 336 333 353 116 51 341 45 55 41 20 82 188 21 150 778 83 51 232 544
leaf_count=39 1345 100 262 271 252 775 577 55 888 26 348 336 333 353 116 51 341 45 55 41 20 82 188 21 150 778 83 51 232 544
internal_value=0 -0.131451 -0.246539 0.302001 -0.391558 0.192377 0.113716 0.381126 -0.295879 -0.577826 0.00460414 0.0393617 -0.399722 0.746444 -1.3241 -0.898676 0.281511 0.981695 0.184036 -0.359844 0.366366 0.609893 0.590598 1.24582 -0.456442 0.340086 -0.190612 -0.23537 -0.171002 -0.109816
internal_weight=0 6102 4502 2656 2854 1600 1455 2385 2401 737 1648 1609 595 511 142 453 1874 145 1181 428 795 456 529 103 201 833 660 387 1664 1432
internal_count=8758 6102 4502 2656 2854 1600 1455 2385 2401 737 1648 1609 595 511 142 453 1874 145 1181 428 795 456 529 103 201 833 660 387 1664 1432
is_linear=0
shrinkage=0.1


Tree=27
num_leaves=31
num_cat=0
split_feature=40 31 22 29 22 14 114 60 65 6 101 108 46 22 66 29 59 42 108 93 58 62 54 108 105 14 40 89 109 62
split_gain=28796.9 15336.6 13720.2 10764.3 9516.08 11348.9 7398.98 6728.16 6553.89 6233.78 6193.03 5858.72 9862.33 5835.93 5779.54 5754.35 5482.22 5272.71 5091.64 4734.02 6604 4464.63 4681.37 3970.44 4570.83 3873.26 4583.88 3841.96 3824.06 3813.3
threshold=2720.6250000000005 448.50000000000006 3780.5000000000005 1.0000000180025095e-35 2139.0000000000005 170.50000000000003 0.6078576107927941 3659399.833333334 202.50000000000003 80.15000000000002 7086.5000000000009 -0.92371800225709011 23.875000000000004 2772.5000000000005 109.37500000000001 2171.5000000000005 2677303.3839285718 261.50000000000006 0.93737853947628602 828.37500000000011 5036794.5833333349 1206.8750000000002 1684.0000000000002 -0.87507039864452407 6751.5000000000009 83.500000000000014 5597.1250000000009 29.500000000000004 0.79321463111734924 1770.1250000000002
decision_type=2 2 2 2 2 2 2 2 2 2 2 2 2 2 2 2 2 2 2 2 2 2 2 2 2 2 2 2 2 2
left_child=1 6 3 11 7 10 9 14 -8 -1 29 12 -2 19 -3 27 -15 -5 -12 -13 21 -21 -23 -19 25 26 -25 -4 -29 -6
right_child=2 4 15 17 5 -7 8 -9 -10 -11 18 13 -14 16 -16 -17 -18 23 -20 20 -22 22 -24 24 -26 -27 -28 28 -30 -31
leaf_value=-1.1124780177554259 -0.87479723142066479 -2.1752005806336037 0.98152020531892781 1.6178678161154192 -0.072922470791455182 0.21375081343521041 0.9159429369794746 -2.520557737350464 0.10566796490747948 -0.10436766380846117 -1.0947841091283759 0.25650374086556632 0.10556901793061482 0.36343662871613458 -0.63837584975139749 1.4695962931595599 -0.06818107048295452 -0.12238878674479654 0.36909647054142425 0.15275473314313553 -1.9005968747039637 -0.28962152247131856 -1.4360758994754992 0.45954849590670394 1.171621513916896 0.2355011916823839 2.1253323557476205 0.27090053798419661 0.83467783901073478 -0.51979076766220145
leaf_weight=65 213 26 100 30 341 337 124 22 512 1089 198 218 198 629 416 51 553 206 27 234 24 568 38 53 65 784 24 1043 136 434
leaf_count=65 213 26 100 30 341 337 124 22 512 1089 198 218 198 629 416 51 553 206 27 234 24 568 38 53 65 784 24 1043 136 434
internal_value=0 -0.217511 0.151168 0.0552298 -0.42354 -0.288125 -0.0102171 -0.813732 0.263646 -0.16115 -0.457257 -0.0551624 -0.402504 0.00789298 -0.728777 0.427945 0.161504 0.30936 -0.919118 -0.159915 -0.264983 -0.218252 -0.361511 0.274682 0.363016 0.301971 0.978754 0.386409 0.335933 -0.323169
internal_weight=0 3591 5167 3837 1801 1337 1790 464 636 1154 1000 2675 411 2264 442 1330 1182 1162 225 1082 864 840 606 1132 926 861 77 1279 1179 775
internal_count=8758 3591 5167 3837 1801 1337 1790 464 636 1154 1000 2675 411 2264 442 1330 1182 1162 225 1082 864 840 606 1132 926 861 77 1279 1179 775
is_linear=0
shrinkage=0.1


Tree=28
num_leaves=31
num_cat=0
split_feature=22 100 60 59 62 32 14 35 29 27 1 101 62 89 79 38 57 95 93 44 13 87 95 93 105 59 105 16 108 95
split_gain=24299.2 17813 20342.4 12887.5 12191.9 11377 9130.14 7115.39 7064.31 5937.44 5956.97 5845.85 6278.05 5650.02 5849.27 5003.24 4911.17 5300.47 4197.42 4106.37 3693.67 3569.83 3894.32 3832.64 3519.42 3255.2 3254.41 3033.37 2962.32 3187.23
threshold=3003.5000000000005 16569.500000000004 3340582.9494047626 2975301.0714285723 1784.1250000000002 308.00000000000006 81.500000000000014 769.50000000000011 1300.0000000000002 452.50000000000006 0.39500000000000007 6978.5000000000009 1134.0000000000002 258.50000000000006 9764.0000000000018 403.50000000000006 624114.93452380958 2394.0000000000005 559.25000000000011 124.50000000000001 548.50000000000011 671.87500000000011 14857.125000000002 3570.6250000000005 8349.5000000000018 2772988.2797619053 1330.5000000000002 346.50000000000006 -0.89254213070351429 16227.000000000002
decision_type=2 2 2 2 2 2 2 2 2 2 2 2 2 2 2 2 2 2 2 2 2 2 2 2 2 2 2 2 2 2
left_child=1 4 11 5 8 9 -4 15 16 10 27 -3 -13 -6 -15 -7 17 -1 -12 -18 -8 23 -23 -9 -17 -22 -14 -2 29 -21
right_child=3 2 6 -5 13 7 20 21 -10 -11 18 12 26 14 -16 24 19 -19 -20 28 25 22 -24 -25 -26 -27 -28 -29 -30 -31
leaf_value=-1.6658345047632854 0.40446272814425371 0.20804896850780419 -2.9828825569152837 -0.37248055826094362 0.23497523098679574 1.3609463154205255 -1.9107477023683748 0.55199336746805594 0.5951048169977492 1.4710534004550992 1.4671346992254257 0.44208958275526405 -1.1876121123306087 -0.26030345903302138 -0.91404900685137247 0.05667748433410922 -0.22495166718396417 -0.20642682972869661 0.56532220235469688 -0.50620982023347327 -1.1896236967039473 0.13741488673390365 0.66151694400827887 -0.79227402408917746 -0.45468850547865947 -0.62009130693963432 -0.38876757683603763 -0.32378307034571968 0.21708065626151518 0.46639944321297588
leaf_weight=30 118 331 20 365 192 28 29 38 269 66 57 83 61 983 159 1594 324 146 546 119 131 212 428 48 147 429 311 111 1336 47
leaf_count=30 118 331 20 365 192 28 29 38 269 66 57 83 61 983 159 1594 324 146 546 119 131 212 428 48 147 429 311 111 1336 47
internal_value=0 -0.144406 -0.44783 0.192132 -0.026993 0.25287 -0.881657 0.143014 0.113953 0.558094 0.485672 -0.111696 -0.344302 -0.266939 -0.351324 0.0348283 0.0493026 -0.45519 0.650568 0.0979284 -0.810308 0.406622 0.487908 -0.198295 0.0135007 -0.753321 -0.519761 0.0514702 0.167578 -0.230832
internal_weight=0 5000 1395 3758 3605 3393 609 2495 2271 898 832 786 455 1334 1142 1769 2002 176 603 1826 589 726 640 86 1741 560 372 229 1502 166
internal_count=8758 5000 1395 3758 3605 3393 609 2495 2271 898 832 786 455 1334 1142 1769 2002 176 603 1826 589 726 640 86 1741 560 372 229 1502 166
is_linear=0
shrinkage=0.1


Tree=29
num_leaves=31
num_cat=0
split_feature=82 32 22 12 23 102 12 100 60 100 87 39 30 51 95 73 61 85 100 97 73 100 11 30 43 58 96 101 11 23
split_gain=20816.6 18021.1 12907.8 8906.31 9024.4 8469.19 8028.05 7305.84 7802.92 6846.74 6702.7 6302.92 6147.69 8323.98 5425.18 4891.22 4842.28 4364.21 4176.45 3711.55 5928.89 3657.28 3532.56 3433.81 3245.55 3189.04 3702.91 3132.6 3021.34 3019.66
threshold=659.50000000000011 83.500000000000014 2698.5000000000005 4179.5000000000009 1025.0000000000002 1.0000000180025095e-35 4031.5000000000005 17610.750000000004 3345088.8779761908 16569.500000000004 785.12500000000011 7777.5000000000009 1106.5000000000002 1929.0000000000002 16063.000000000002 359.50000000000006 2985.1250000000005 10614.500000000002 20416.125000000004 4603.5000000000009 2981.5000000000005 5835.1250000000009 25751.000000000004 2131.5000000000005 366.87500000000006 4331013.8809523815 4270.5000000000009 1982.5000000000002 19985.000000000004 1425.0000000000002
decision_type=2 2 2 2 2 2 2 2 2 2 2 2 2 2 2 2 2 2 2 2 2 2 2 2 2 2 2 2 2 2
left_child=1 6 7 4 24 15 12 -3 28 14 -11 21 13 -1 17 -2 -6 22 -14 -5 -21 -8 -7 -12 -4 26 -13 -17 -9 -27
right_child=5 2 3 19 16 9 11 8 -10 10 23 25 18 -15 -16 27 -18 -19 -20 20 -22 -23 -24 -25 -26 29 -28 -29 -30 -31
leaf_value=0.35563346811913871 -1.5000777454287917 -0.087821776883647409 -0.065333451626774605 0.15430493341152221 0.68175651261628412 -1.6930791303515436 1.9492875216780483 -0.95967603173153471 -0.92982945405649697 -3.0323639722097493 -1.7203136479312722 0.091762320765112093 0.049087995792635619 2.1764763823870954 1.1035271951556207 0.11447626972705666 0.041861403429054853 -1.2232802975922823 -1.039035921926434 -0.91989452272121397 0.5847159838865017 0.83384628574122921 -0.31790424789838467 -0.29847024168287006 -0.42919336962415938 0.52411851344613347 0.56959967857723437 -0.2624000575826142 -0.12938881893550427 1.4734014263997475
leaf_weight=187 27 1083 429 1470 164 20 37 50 265 21 33 353 756 29 20 332 424 84 37 28 405 143 283 35 572 111 300 657 355 48
leaf_count=187 27 1083 429 1470 164 20 37 50 265 21 33 353 756 29 20 332 424 84 37 28 405 143 283 35 572 111 300 657 355 48
internal_value=0 0.0704254 -0.026982 0.0841672 -0.0906037 -0.337502 0.325749 -0.248393 -0.507943 -0.67623 -1.47075 0.527758 0.127143 0.600098 -0.50249 -0.172139 0.220336 -0.585488 -0.00168197 0.2301 0.48742 1.06313 -0.408675 -0.988482 -0.273253 0.409079 0.311289 -0.135885 -0.231893 0.810694
internal_weight=0 7246 5245 3492 1589 1512 2001 1753 670 496 89 992 1009 216 407 1016 588 387 793 1903 433 180 303 68 1001 812 653 989 405 159
internal_count=8758 7246 5245 3492 1589 1512 2001 1753 670 496 89 992 1009 216 407 1016 588 387 793 1903 433 180 303 68 1001 812 653 989 405 159
is_linear=0
shrinkage=0.1


Tree=30
num_leaves=31
num_cat=0
split_feature=62 93 22 91 114 60 71 84 31 59 105 63 49 95 22 101 74 109 42 95 60 87 57 91 6 29 97 61 13 87
split_gain=17075 12618.5 11709.5 9450.07 8591.39 8181.49 7287.01 6382.96 6215.74 6162.95 6102.83 6144.01 5300.65 4772.79 4662.33 4903.48 5742.02 4450.62 4360.58 4125.46 3975.76 3826.63 3703.7 3686.93 3489.82 3402.29 3447.14 2878.77 2855.14 3109.63
threshold=1773.1250000000002 1502.7500000000002 3013.5000000000005 592.50000000000011 0.6078576107927941 3611678.7589285718 2851.1250000000005 30259.000000000004 242.50000000000003 2915077.6428571432 8281.5000000000018 3815.0000000000005 3377.6250000000005 13850.625000000002 726.50000000000011 6201.5000000000009 183.12500000000003 -0.94972806804725407 2571.5000000000005 10444.750000000002 3327789.4464285718 560.62500000000011 920356.67559523822 659.50000000000011 214.99500000000003 2220.5000000000005 3200.5000000000005 2651.5000000000005 881.50000000000011 572.12500000000011
decision_type=2 2 2 2 2 2 2 2 2 2 2 2 2 2 2 2 2 2 2 2 2 2 2 2 2 2 2 2 2 2
left_child=1 4 6 5 13 7 8 18 23 -7 11 20 25 24 -10 -16 -17 -15 21 -9 -4 -2 -20 -3 -1 26 -6 -14 29 -13
right_child=3 2 10 -5 12 9 -8 19 14 -11 -12 28 27 17 15 16 -18 -19 22 -21 -22 -23 -24 -25 -26 -27 -28 -29 -30 -31
leaf_value=-0.0028415011732105047 -0.4678345981734891 -0.021690023077147763 0.22396353860385718 -1.610744669972634 0.26262378493522326 -2.1809051473935446 0.20093708835732313 -0.4816556844752648 -1.6023128096262615 -0.52501000567355149 -0.3618227107888734 -0.52373554897494612 2.2775505332946779 1.3854556324689284 -0.13701986762327059 -1.0591172758370448 -0.36783683517463439 0.32409912474453451 0.94095309801496474 -1.8559378494098784 -0.23603873003329667 -0.030952271210240592 -0.22645150146314075 1.2999168889089066 1.1506495111518438 1.6341783187389376 0.77826696596293832 0.92811090821443598 0.13087236958452864 0.4809564449226813
leaf_weight=918 238 521 352 49 372 24 436 173 30 354 209 32 25 46 616 156 523 280 77 25 403 1272 42 22 27 25 199 43 443 826
leaf_count=918 238 521 352 49 372 24 436 173 30 354 209 32 25 46 616 156 523 280 77 25 403 1272 42 22 27 25 199 43 443 826
internal_value=0 0.0821987 -0.00844622 -0.237187 0.296233 -0.206664 -0.167174 -0.119047 -0.253093 -0.630146 0.153014 0.205349 0.587761 0.143932 -0.369868 -0.341317 -0.526658 0.473861 -0.0538818 -0.655176 -0.0215741 -0.0998119 0.528928 0.0318557 0.0301154 0.492325 0.442331 1.42423 0.337038 0.443485
internal_weight=0 6504 4569 2254 1935 2205 2304 1827 1868 378 2265 2056 664 1271 1325 1295 679 326 1629 198 755 1510 119 543 945 596 571 68 1301 858
internal_count=8758 6504 4569 2254 1935 2205 2304 1827 1868 378 2265 2056 664 1271 1325 1295 679 326 1629 198 755 1510 119 543 945 596 571 68 1301 858
is_linear=0
shrinkage=0.1


Tree=31
num_leaves=31
num_cat=0
split_feature=102 107 84 103 100 12 14 42 100 7 109 74 5 73 100 0 101 25 107 100 99 17 95 95 58 59 39 108 35 22
split_gain=15119.3 13750.4 16532.4 13052.7 11625 8555.4 7158.18 6771.69 6699.92 7182.73 5415.61 4868.94 4525.16 3958.48 3700.22 4116.23 3698.46 3669 3641.61 4361.65 3593.43 3421.37 3484.89 3184.04 3515.11 2975.37 3024.55 2885.04 2829.23 2782.64
threshold=1.0000000180025095e-35 0.37940952255126048 12312.625000000002 1.0000000180025095e-35 9629.5000000000018 4299.5000000000009 73.500000000000014 302.50000000000006 8129.7500000000009 5563.1250000000009 0.7579717231454528 229.12500000000003 219.77500000000003 359.50000000000006 22430.500000000004 2.1150000000000007 10549.000000000002 1860.0000000000002 -0.91597561503675329 2271.5000000000005 1814.5000000000002 204.50000000000003 13718.875000000002 11298.250000000002 4686794.7767857155 2966923.7321428577 5794.5000000000009 -0.54767606728947926 796.50000000000011 1324.5000000000002
decision_type=2 2 2 2 2 2 2 2 2 2 2 2 2 2 2 2 2 2 2 2 2 2 2 2 2 2 2 2 2 2
left_child=1 2 4 21 7 14 -5 -1 -3 16 12 18 23 -4 -6 17 -10 -16 -8 -20 -12 -2 -23 -9 -25 26 -15 -13 -7 -28
right_child=3 8 13 6 5 28 11 10 9 -11 20 27 -14 25 15 -17 -18 -19 19 -21 -22 22 -24 24 -26 -27 29 -29 -30 -31
leaf_value=1.7698874376714231 -0.73622742190405177 0.125481706132168 -1.1643446011525211 -2.0594717502593993 0.1690375980542046 0.35811399474004463 -0.86834348996388755 0.24088800227517396 -0.39312545253329723 -0.045330180994598041 0.85892443167738242 -0.26367013089177088 1.4132518691486782 0.3084342229196409 0.049043210902038205 -1.304206483066082 -1.1153433562060933 -0.66837701151256468 0.15210674383497538 -0.51062967761854328 2.1084238829436126 -0.065055544520391681 0.2990811957170566 0.39258757058367438 1.1994641507373138 -0.41974237299291417 -1.2480921086668968 0.32729006194878885 0.88253753304335414 -0.054943748855025544
leaf_weight=48 54 805 33 26 629 314 217 511 569 885 156 287 45 256 295 32 81 94 119 600 27 664 435 148 85 192 20 116 153 862
leaf_count=48 54 805 33 26 629 314 217 511 569 885 156 287 45 256 295 32 81 94 119 600 27 664 435 148 85 192 20 116 153 862
internal_value=0 0.0834639 0.198449 -0.206837 0.349361 0.173834 -0.416089 0.610413 -0.108178 -0.230716 0.553156 -0.384179 0.439477 -0.0824491 0.0154575 -0.214001 -0.483125 -0.124318 -0.509303 -0.400942 1.04328 0.0408909 0.079075 0.38058 0.686942 -0.0556051 0.00583111 -0.0935674 0.529927 -0.0819993
internal_weight=0 6240 3900 2518 2537 1517 1365 1020 2340 1535 972 1339 789 1363 1050 421 650 389 936 719 183 1153 1099 744 233 1330 1138 403 467 882
internal_count=8758 6240 3900 2518 2537 1517 1365 1020 2340 1535 972 1339 789 1363 1050 421 650 389 936 719 183 1153 1099 744 233 1330 1138 403 467 882
is_linear=0
shrinkage=0.1


Tree=32
num_leaves=31
num_cat=0
split_feature=82 32 9 12 100 101 108 101 101 24 99 10 109 105 107 39 100 102 30 51 66 22 82 78 115 84 9 6 0 34
split_gain=12577.7 11525.6 8380.03 8289.06 7348.19 6734.48 5971.87 5268.11 4966.99 4837.33 5072.05 5136.5 4140.76 3944.98 3577.96 6920.55 4203.4 3255.89 4902.56 3829.22 3226.31 3198.05 3181.41 2998.91 3446.34 5582.22 2997.27 2972.49 2946.53 3591.19
threshold=659.50000000000011 827.50000000000011 46586.875000000007 4031.5000000000005 21472.375000000004 8352.5000000000018 -0.38261652434306781 1863.5000000000002 3516.5000000000005 2955.0000000000005 1373.5000000000002 50871.500000000007 -0.056060643931374665 8281.5000000000018 0.37940952255126048 7690.0000000000009 14742.375000000002 1.0000000180025095e-35 506.50000000000006 1699.5000000000002 462.87500000000006 448.50000000000006 206.50000000000003 8947.0000000000018 0.81174490092936691 17289.625000000004 56219.000000000007 40.595000000000006 0.065000000000000016 12321.875000000002
decision_type=2 2 2 2 2 2 2 2 2 2 2 2 2 2 2 2 2 2 2 2 2 2 2 2 2 2 2 2 2 2
left_child=1 3 5 4 8 -3 12 21 17 23 27 -12 -4 28 15 16 -5 18 19 -1 -14 -2 -17 -9 -25 -26 -19 -11 -8 -30
right_child=7 2 6 14 -6 -7 13 9 -10 10 11 -13 20 -15 -16 22 -18 26 -20 -21 -22 -23 -24 24 25 -27 -28 -29 29 -31
leaf_value=0.66770512314561092 -0.84446340117015328 -0.127425518497368 0.068214365615997294 1.2938292831400016 -0.91508710638065893 -0.6237593162988555 0.33270752039958529 -1.3555453958610695 -0.15761749343408335 -1.6725458643653177 -2.9130167663097382 -0.64663098126649865 -0.14457470839006983 -0.25218716530648416 0.15991942204677725 0.45062806348634538 0.39865590755115538 0.047515712508057813 0.21989538051307511 2.2186839067935944 -0.66650918018531036 0.11592779894961479 0.031021113576757353 -0.12102939943529525 0.19113308592718475 -1.1327467723698408 -0.95169005428041731 -0.45342883163576264 -0.33796169382190988 0.34101769090566325
leaf_weight=78 38 1089 504 137 79 365 946 24 571 22 20 20 323 183 675 603 85 211 584 20 187 396 258 632 49 91 35 220 167 146
leaf_count=78 38 1089 504 137 79 365 946 24 571 22 20 20 323 183 675 603 85 211 584 20 187 396 258 632 49 91 35 220 167 146
internal_value=0 0.0547424 -0.0617528 0.191282 0.0249042 -0.252021 0.0508898 -0.262344 0.0744434 -0.380781 -0.736678 -1.77982 -0.135064 0.181651 0.340625 0.453253 0.951083 0.217231 0.329727 0.984231 -0.335951 0.0318382 0.324892 -0.254696 -0.220473 -0.669389 -0.0946477 -0.564258 0.24471 -0.0212493
internal_weight=0 7246 3910 3336 1578 1454 2456 1512 1499 1078 282 40 1014 1442 1758 1083 222 928 682 98 510 434 861 796 772 140 246 242 1259 313
internal_count=8758 7246 3910 3336 1578 1454 2456 1512 1499 1078 282 40 1014 1442 1758 1083 222 928 682 98 510 434 861 796 772 140 246 242 1259 313
is_linear=0
shrinkage=0.1


Tree=33
num_leaves=31
num_cat=0
split_feature=85 93 12 101 108 58 107 36 102 82 63 18 91 79 32 30 97 96 6 58 31 62 73 32 63 13 11 46 60 49
split_gain=11008.5 10286.6 11160.6 6201.75 6167.79 5551.08 5381.06 5183.12 4655.64 4654.67 5140.82 4620.85 5262.67 4249.83 4046.45 3905.24 3875.63 5227.65 3857.81 3478.86 3428.4 3185.81 3101.83 3032.9 2790.83 2549.5 2509.66 2628.56 2694.39 2272.3
threshold=8437.5000000000018 1731.7500000000002 4299.5000000000009 9537.0000000000018 -0.34781004316078107 4830590.8244047631 0.25881904510252057 861.12500000000011 1.0000000180025095e-35 166.50000000000003 2505.0000000000005 575.00000000000011 691.50000000000011 6672.5000000000009 614.50000000000011 3114.0000000000005 2260.5000000000005 10830.500000000002 214.99500000000003 5014897.791666667 2305.0000000000005 1766.1250000000002 630.50000000000011 2341.5000000000005 2457.0000000000005 767.00000000000011 30151.500000000004 16.375000000000004 3514130.3809523811 149.62500000000003
decision_type=2 2 2 2 2 2 2 2 2 2 2 2 2 2 2 2 2 2 2 2 2 2 2 2 2 2 2 2 2 2
left_child=1 4 3 5 -1 14 9 16 22 10 -6 -7 19 -10 25 -4 20 -18 -12 23 -5 -15 -2 -13 -16 29 -11 28 -28 -3
right_child=8 2 15 7 6 11 -8 -9 13 26 18 12 -14 21 24 -17 17 -19 -20 -21 -22 -23 -24 -25 -26 -27 27 -29 -30 -31
leaf_value=0.0067038811946362395 -1.2527615950657773 -0.4279804379425266 0.060730378192259238 0.076099653588974581 1.837050726513068 -0.15777518175831953 0.12099657357510203 -0.050296273474095224 -1.679559330476655 0.64071177318692207 0.52401438681469636 0.80024400349852831 -1.1546053436669437 -0.10969852445925649 0.19089942518804295 0.39534205354250257 -1.0857213336257983 -0.29532063182443385 1.7928106381342961 0.032637984140896477 -0.95698097086576528 -0.84773676646079199 -0.13988632983732915 0.0308469089143204 -0.36195906844144066 -0.12157723885862333 0.88624843129888176 -0.020995364454135579 -0.061448200916250556 0.3525183272361756
leaf_weight=1073 26 44 972 127 39 283 785 293 36 149 306 229 22 107 102 544 208 140 26 147 43 129 682 66 871 671 80 265 48 245
leaf_count=1073 26 44 972 127 39 283 785 293 36 149 306 229 22 107 102 544 208 140 26 147 43 129 682 66 871 671 80 265 48 245
internal_value=0 0.0397961 -0.045756 -0.144141 0.194383 -0.0708206 0.312981 -0.386433 -0.315851 0.478049 0.750961 0.160693 0.354932 -0.6675 -0.160288 0.180802 -0.576565 -0.767744 0.623378 0.430067 -0.185209 -0.513118 -0.180755 0.628108 -0.304003 -0.0146276 0.291241 0.158745 0.530862 0.233688
internal_weight=0 7778 5007 3491 2771 2680 1698 811 980 913 371 747 464 272 1933 1516 518 348 332 442 170 236 708 295 973 960 542 393 128 289
internal_count=8758 7778 5007 3491 2771 2680 1698 811 980 913 371 747 464 272 1933 1516 518 348 332 442 170 236 708 295 973 960 542 393 128 289
is_linear=0
shrinkage=0.1


Tree=34
num_leaves=31
num_cat=0
split_feature=22 93 88 71 59 14 28 101 9 105 61 62 109 90 58 93 44 90 36 5 22 60 1 109 65 23 12 109 4 108
split_gain=9471.57 8105.9 7292.28 6671.54 6205.76 5900.46 4871.08 4639.01 5812.18 4460.66 4424.55 4271 3678.89 3533.91 3398.33 3410.79 3375.78 3236.43 5024.01 3173.09 2808 2748.97 3284.36 2718.88 2620.88 2587.75 2728.89 2569.74 2500.94 2472.22
threshold=3003.5000000000005 1638.1250000000002 79.500000000000014 2851.1250000000005 2975301.0714285723 75.500000000000014 1893.5000000000002 6978.5000000000009 44580.375000000007 945.50000000000011 4541.5000000000009 1278.6250000000002 -0.99127151805918545 3470.2500000000005 4697595.5089285718 3135.3750000000005 137.50000000000003 2112.0000000000005 715.87500000000011 169.75000000000003 726.50000000000011 3484856.9047619053 33.165000000000006 0.3478100431607809 214.50000000000003 925.00000000000011 4124.5000000000009 -0.9373785394762858 1.0000000180025095e-35 -0.85637480150636114
decision_type=2 2 2 2 2 2 2 2 2 2 2 2 2 2 2 2 2 2 2 2 2 2 2 2 2 2 2 2 2 2
left_child=1 2 19 5 6 -3 9 13 -9 14 29 -8 -12 20 24 -16 27 18 23 -1 -7 -18 -23 -10 -2 26 -19 -11 -22 -4
right_child=4 3 10 -5 -6 7 11 8 17 16 12 -13 -14 -15 15 -17 21 25 -20 -21 28 22 -24 -25 -26 -27 -28 -29 -30 -31
